-0.026318891	-0.03433287	0.4771664	0.450081	-0.7642108	0.11292035	-0.32569137	-0.19879752	0.3607584	-0.20968987	-0.047494177	0.28020296	-0.7760486	0.024033336	-0.2831148	0.41789487
-0.0021479886	-0.012713316	0.3201826	0.17851402	-0.66244304	0.2692109	-0.26079774	0.3326955	0.6568108	0.17204274	0.40021357	-0.049829498	0.1587267	-0.51713675	-0.6951364	0.050186545
0.2741027	-0.20180821	0.122653686	-0.085021906	-0.5400221	-0.1539566	0.14939669	0.14328614	0.032202937	-0.19585367	0.45099944	-0.21256584	-0.06986554	-0.37074324	-0.26872873	0.4027348
-0.06726686	-0.039954104	0.10774846	0.06652197	-0.06035045	0.109490864	-0.044732094	0.005327286	0.11397826	0.0008862692	-0.13508463	0.1425742	-0.2257014	0.073708996	0.08438883	-0.011491922
0.01617561	-0.27305257	0.31660125	-0.24530496	-0.021318203	0.05366121	0.40632454	0.13175862	0.015637608	0.07967456	-0.3835444	0.12055991	-0.14603828	-0.16400747	0.40327424	0.48555917
0.49970394	-0.119195834	-0.6317854	-0.03878612	-0.5626788	-0.7795672	-0.12651916	-0.38374767	-0.78773826	-0.7161396	1.0166953	-0.74480057	-0.3423764	0.09846431	-0.22707102	0.26704162
-0.09260142	-0.008204691	0.2676896	0.02492475	-0.2586008	0.00289986	0.16510294	0.09673774	0.14999212	0.12874706	0.14790423	0.073096335	0.13989696	-0.24161907	-0.20206937	0.25211024
-0.1689648	0.12611829	-0.025216553	0.11627075	0.35334864	-0.050057232	0.23175478	-0.5554378	-0.49704638	-0.1259152	-0.32811207	0.24171637	-0.20849389	0.5553942	0.6371324	0.10934297
-0.10103339	0.20851813	-0.08484376	0.24536686	0.12907659	-0.045986146	-0.20104903	-0.28238338	-0.20158963	-0.1425542	0.035259623	-0.005099166	-0.1882333	0.27441618	-0.0009811523	-0.11854771
-0.22698444	0.7339998	-0.1718283	0.8887396	0.035793137	0.08635288	-0.6343628	-0.6124063	0.07680167	-0.012209102	0.56629527	-0.011140935	0.08562581	0.46404135	-0.7610532	-0.69880897
0.0697483	0.0890429	0.08350818	0.1448283	-0.26476333	-0.00788494	-0.13878414	-0.024489505	0.09409872	-0.08040324	0.21212019	-0.05382035	-0.085865036	-0.05975544	-0.33490667	-0.047075465
-0.10772546	0.10308967	0.12301494	0.14818549	-0.004507605	0.1143081	0.059892263	0.016767938	0.12310568	0.051631723	0.1480734	0.15036009	0.19892187	-0.06302258	-0.18800053	0.085934654
-0.3603065	0.019941745	0.21062143	-0.08432434	0.551464	0.29442608	0.32949415	-0.156705	-0.15742108	0.1511815	-1.1107075	0.5153408	-0.58136153	0.42666715	1.1953281	-0.09441801
-0.16343553	-0.018779865	0.15102181	0.03649965	-0.02277304	0.29786643	-0.18516783	0.106413014	0.26462594	0.16631064	-0.18655543	0.20242311	-0.10453264	-0.06745648	-0.060809832	-0.10701744
-0.21965723	-0.30355334	0.5229659	-0.26504648	-0.2391012	0.47175255	0.40366086	0.55178756	0.62437063	0.4708207	-0.3555797	0.30794632	0.14595394	-0.6080877	0.10537896	0.39218277
-0.17415856	-0.09287078	0.3084389	-0.040077865	0.040876787	0.3148488	0.15974948	0.16958374	0.2925744	0.2714287	-0.3522015	0.25081718	-0.046144255	-0.16501717	0.18892998	0.1715605
0.74381936	-0.4304138	-0.65586156	-0.4710226	-0.65902895	-0.8133385	-0.05238842	-0.070159264	-0.9058072	-0.8008303	0.40133575	-0.7824029	-0.85182804	-0.09294087	0.22408488	0.2446186
-0.2318018	0.13770236	-0.017442496	0.10510989	0.2116531	0.36710697	-0.32229936	-0.036988433	0.25665826	0.10056635	-0.2975725	0.29161704	-0.33526164	0.16504107	0.025968222	-0.4413349
0.22061546	-0.2285944	0.08276307	-0.19104257	-0.32007745	-0.004909447	-0.019229872	0.24997678	0.19822095	0.03567501	-0.045116495	-0.13510627	-0.121895805	-0.2666195	-0.04907885	0.11730748
-0.053744055	0.012377826	0.08409729	0.033435434	0.03135993	0.055572856	-0.041727334	-0.012521982	-0.008457462	0.012882	-0.15935218	0.12133603	-0.14158691	0.06842975	0.1198362	0.008729118
0.1334732	-0.25028452	0.031817652	-0.22255996	-0.110310525	-0.013620057	0.00043795703	0.16395746	0.024007406	-0.040807743	-0.29636183	0.01016752	-0.35160366	-0.063900106	0.21210188	0.0675791
0.2552901	-0.2160535	-0.017518347	-0.18748862	-0.38009998	-0.44298837	0.36951447	-0.044632	-0.38468292	-0.29501426	0.37528938	-0.2800343	-0.06313861	-0.20480807	0.14185837	0.5533202
-0.019867172	0.21748559	-0.04647952	0.34230074	-0.18365908	-0.02827754	-0.2432542	-0.16707805	0.15554275	-0.032234214	0.53168124	-0.051542345	0.22239839	-0.046454307	-0.486786	-0.06017608
-0.44444597	0.4320626	0.20379233	0.50164086	-0.07405346	0.19181824	-0.08072992	-0.12140223	0.12339456	0.1374562	0.1067986	0.4002226	0.2455547	-0.011852848	-0.35220656	0.06316448
-0.14759524	0.074847125	0.17961963	0.08837397	-0.02491902	0.17346509	0.05465774	-0.029638516	0.11904333	0.15293236	0.03699638	0.09946891	0.17186038	-0.06811563	-0.14158581	0.17450896
0.048125487	-0.20909093	0.14121924	-0.22837022	-0.15839075	0.023410818	0.22571234	0.2553489	0.15716802	0.11147238	-0.25214413	0.028862221	-0.12163674	-0.27479258	0.14516369	0.24161893
0.09816516	0.008391721	-0.18194957	0.05005013	0.01674111	-0.21311843	-0.10757275	-0.21270823	-0.30328518	-0.2807777	-0.09256103	-0.07838602	-0.35612324	0.24683279	0.16589078	-0.06257659
0.008395401	-0.15553537	0.17533335	-0.06740408	-0.02202368	0.0790088	0.20463474	0.035292715	-0.03972124	0.044391233	-0.20980053	0.069136955	-0.10125747	-0.033540275	0.22453856	0.2948472
-1.0671542	1.2557116	1.0898516	1.3613678	-0.15339866	1.0834785	0.5349369	0.09357419	1.0640236	1.0608776	1.4933968	0.9327668	1.3110911	-0.6341528	-1.4522259	0.7567549
-0.042546157	-0.17570932	0.2723998	-0.108255655	-0.23191883	0.09582341	0.20715022	0.26983088	0.28706065	0.130234	-0.004960725	0.010765032	0.08418686	-0.34303242	-0.11682035	0.24861409
-0.07356727	0.1425231	-0.023121584	0.18015864	0.09901583	-0.039440557	-0.030227529	-0.26505888	-0.18578635	-0.094233945	-0.09972678	0.10276965	-0.11537107	0.18985592	0.09844904	-0.13402575
-1.0981808	0.9763815	0.8424534	1.0916952	0.22555968	1.0119604	0.53699595	-0.10532496	0.71858096	0.88853747	0.78853077	0.9718203	0.97301006	-0.1634035	-0.89735407	0.381797
-0.6787755	-0.07216542	0.20300278	-0.15800336	0.772164	0.62455165	0.1652611	-0.047380812	-0.013444882	0.28142127	-1.2510126	0.9303722	-0.86511165	0.37652496	1.3116841	-0.26785326
0.0528093	-0.005891157	-0.02207096	0.040383186	0.009484206	-0.0692222	0.058020987	-0.18260074	-0.24521251	-0.09305825	-0.14008096	0.061388507	-0.17337698	0.16820443	0.16619249	0.050109822
-0.25762963	0.062116846	0.20757596	0.08682551	0.19806083	0.18402171	0.18617979	-0.0958832	0.0943273	0.20600215	-0.26825824	0.34171453	0.013628059	0.1308152	0.21911553	0.0130590955
0.22314672	-0.047166016	-0.18486108	-0.0070468537	-0.265021	-0.32222015	-0.10492558	-0.21370435	-0.28706095	-0.26197642	0.38988507	-0.26918268	-0.15366054	0.050187454	-0.14528248	0.0052826675
0.987174	-0.9174407	-0.74653065	-0.93430024	-0.8285996	-1.029565	0.7056165	0.64669394	-0.9783832	-0.9913237	0.21108772	-0.932461	-0.9699512	-0.78385395	0.7918279	0.90002173
0.04701856	-0.06116858	0.052082375	-0.040497284	-0.035911757	-0.015705215	0.039214578	0.00015621349	0.009314457	-0.09271218	-0.13987647	0.04150677	-0.25296673	0.019221682	0.20041232	-0.015351997
-0.28024024	0.07732694	0.41762805	0.20023385	0.027774207	0.16443639	0.41043028	0.031558126	0.16786571	0.24762109	0.19848034	0.25416058	0.3785937	-0.15249155	-0.07208881	0.3944184
-0.026318084	-0.30824405	0.16029273	-0.32276517	-0.011875384	0.32961097	0.018000554	0.23028155	0.24757303	0.18374142	-0.5744389	0.18606497	-0.38516355	-0.14750834	0.33199644	-0.034032468
-0.15842108	0.04377776	0.15743102	0.01952564	0.12986358	0.23526362	0.011969599	0.009066092	0.07838924	0.06846132	-0.2523731	0.25719994	-0.082455955	0.041376535	0.15551655	-0.051473726
0.018040625	-0.21125197	0.25044864	-0.0831465	-0.17270187	0.02141433	0.23137741	0.3007827	0.12581377	0.10386312	-0.028407011	0.093053006	0.0629218	-0.29839802	-0.028748263	0.34906068
-0.037216045	-0.22141634	0.31808347	-0.18923253	-0.100810185	0.17994688	0.2022886	0.32127896	0.32001635	0.19364125	-0.4006526	0.15673535	-0.09622892	-0.31927353	0.2227464	0.16950062
0.0198613	-0.0017480652	-0.028465593	-0.0066578584	-0.0811879	0.10909687	-0.17824562	0.12481739	0.13194828	0.010581005	-0.15830405	-0.0085863285	-0.17586905	-0.011788932	-0.08462868	-0.17303914
-0.14229913	-0.11789411	0.20669955	-0.068802394	0.030191176	0.24257497	0.07766254	0.16770163	0.25287023	0.17496789	-0.2691557	0.19698986	-0.0019763738	-0.13164008	0.1140775	0.025600363
-0.26664254	0.07696214	-0.020916184	0.035513237	0.39785048	0.25435203	0.017741255	-0.24998228	-0.20824313	0.09015479	-0.6703994	0.32682532	-0.45361778	0.34969792	0.57624376	-0.19876404
-0.051660772	-0.18808256	0.21390735	-0.2124004	0.043061353	0.22577477	0.05458408	0.26373506	0.17409633	0.1928692	-0.4726229	0.24751091	-0.27158037	-0.04673254	0.289361	0.027132485
0.37183344	0.44103247	-0.6508022	0.42245692	-0.22487466	-0.5034894	-0.58543926	-0.5633786	-0.4818314	-0.67825156	0.62374365	-0.49069455	-0.5935122	0.5103999	-0.47476223	-0.52625287
0.19399911	0.6250467	-0.4268136	0.6233831	-0.06425319	-0.24523528	-0.65975213	-0.60821766	-0.23282999	-0.41838774	0.59640247	-0.36101034	-0.17295854	0.5267154	-0.6299815	-0.6355712
0.3686516	0.28697243	-0.3964767	0.29003668	-0.29810828	-0.3195948	-0.5203158	-0.36794224	-0.246263	-0.43569893	0.6216516	-0.4013113	-0.19373769	0.29167363	-0.5154797	-0.4324626
0.28772634	-0.4063743	-0.10958473	-0.3710087	-0.15484512	-0.40318164	0.32942057	0.11845932	-0.45222637	-0.3890128	-0.23709951	-0.268545	-0.5280986	-0.10703361	0.54512954	0.36376923
0.00091796694	-0.23562081	0.28974777	-0.16643378	-0.18709566	-0.039701365	0.4927388	0.294826	0.07723487	0.032881964	-0.13491897	0.044193175	-0.035950758	-0.31756297	0.26587147	0.5567334
-0.1386918	-0.25830182	0.19433679	-0.19744992	0.049899675	0.3554093	0.12800322	0.2827554	0.28435653	0.27919737	-0.5085899	0.32706633	-0.25603575	-0.15969913	0.29311937	0.046970468
-0.3123032	-0.024072425	0.40247843	-0.003963971	0.10254327	0.4462704	0.23907138	0.2557361	0.49284565	0.44123754	-0.25870287	0.40337646	0.19483899	-0.21588334	0.12419548	0.13276091
0.6337138	-0.76325774	-0.5681972	-0.69636136	-0.61089313	-0.7872132	0.75515395	0.42816955	-0.8462007	-0.7580615	0.16090116	-0.6934215	-0.7521622	-0.5869353	0.8120571	0.8098033
0.016551882	0.026510727	-0.07593376	0.028251376	0.0073057096	0.051523518	-0.21567313	-0.015833763	0.07413814	0.002045364	-0.08048478	-0.015637271	-0.2769177	0.07471581	-0.06517061	-0.14052561
0.3163926	-0.061172254	-0.19811632	-0.094963744	-0.25052375	-0.33143616	0.013855246	-0.04881844	-0.21258706	-0.211403	0.19836879	-0.27845258	-0.17860654	-0.06383616	-0.09925555	0.08356144
-0.07679003	0.64533603	-0.08385184	0.70569015	-0.10491649	0.12309441	-0.4534007	-0.36013582	0.20794599	-0.032990422	0.43778527	0.029064257	0.082159676	0.27294126	-0.60113114	-0.47703427
0.86040694	-0.77489954	-0.72448945	-0.67408204	-0.789851	-0.91375774	0.40862262	0.37528402	-0.8431732	-0.89467216	0.39528152	-0.84581864	-0.83005863	-0.53437763	0.56651855	0.6670729
0.2215707	0.021630403	-0.21399672	-0.07406814	-0.051714752	-0.15710808	-0.2504367	-0.10822217	-0.13804449	-0.23394555	0.029819444	-0.18669786	-0.40840548	0.14280412	-0.0074085128	-0.14653085
-0.1934081	-0.67157674	0.72635543	-0.67858607	-0.3231497	0.66449934	0.70947874	0.8319519	0.7038619	0.6094091	-0.774676	0.49720052	-0.22760187	-0.8091514	0.57403076	0.7384649
-0.7527313	1.0159312	0.6609571	1.1469512	-0.03836292	0.59171075	0.099204645	-0.23179623	0.6788555	0.70065373	1.3037057	0.5369407	1.1105217	-0.17493068	-1.2276423	0.35327315
-0.4719283	0.17006949	-0.15068588	0.1393403	0.5560134	0.36264423	-0.12212072	-0.3309297	-0.33909833	0.032566126	-0.8405344	0.514022	-1.101586	0.6368632	1.0169393	-0.58235294
-0.275239	-0.26503688	0.5624552	-0.1931056	-0.28210104	0.5096357	0.43589377	0.55533534	0.61234415	0.49466336	-0.25669962	0.38564444	0.18918267	-0.60522085	0.0076683178	0.4545792
0.10399885	-0.37792107	0.25041395	-0.3698556	-0.24311115	0.070993684	0.35890937	0.42135245	0.1630643	0.11366878	-0.25993577	0.048975036	-0.090707205	-0.4415912	0.30638	0.3763636
0.30824876	-0.8777241	0.26079315	-0.801965	-0.5807595	0.04890795	0.5244723	0.7353162	0.27743086	0.046351038	-0.69108623	-0.044917494	-0.7649063	-0.7042567	0.6785992	0.633384
-0.10274343	0.11740832	0.09684713	0.123134784	0.06536495	0.15496305	-0.026283769	-0.07679128	0.1032987	0.11527463	-0.15333557	0.14549287	0.015989715	0.07382777	0.07127795	-0.030712474
0.3781571	0.8272599	-0.8637988	0.7513115	-0.060905997	-0.5151676	-0.9950132	-0.87905365	-0.5008033	-0.72964245	0.727035	-0.5059388	-0.64275473	0.87397605	-0.72264093	-1.0269151
-0.3448191	0.49632317	0.1416415	0.5112567	0.0953338	0.16191104	-0.025636168	-0.37581488	0.11386397	0.12707564	0.5033125	0.1462308	0.37776786	0.17442805	-0.44004056	-0.035647385
0.1952022	-0.030855453	-0.23805694	-0.009520967	-0.24245512	-0.17129238	-0.2079672	-0.10283687	-0.10365108	-0.28331855	0.0022733642	-0.23925008	-0.33427963	0.07533828	-0.054872297	-0.12211368
0.37631345	-0.35111874	-0.26738283	-0.29696912	-0.29917723	-0.42484224	0.057495367	0.08331567	-0.28834376	-0.38486248	0.08347944	-0.38580322	-0.477244	-0.1062285	0.16996622	0.22979541
-0.47366992	-0.10581298	0.54762703	-0.102056965	0.15224366	0.580697	0.34892663	0.27907264	0.46824282	0.5455289	-0.50208014	0.5695447	0.09033713	-0.24936263	0.27574304	0.26175308
0.05488738	0.093899034	-0.073766805	0.025130281	-0.043337487	0.06148832	-0.236896	-0.10417377	-0.01689809	-0.14064424	0.029469091	-0.08575153	-0.15736102	0.10730528	-0.076774985	-0.2028039
-0.31219062	0.1674771	0.19056104	0.1967846	0.21706939	0.22451738	0.021628557	-0.09355805	0.03181299	0.17383729	-0.17238837	0.31499344	0.06354558	0.17320406	0.05124704	-0.0707971
0.2301436	-0.25615445	0.012863146	-0.1903392	-0.38281864	-0.22567877	0.26172864	0.1443441	-0.18417098	-0.19853607	0.42479032	-0.28260496	-0.043982342	-0.3789461	-0.108066894	0.47800517
-0.019840466	-0.03264047	-0.08776246	0.017410053	0.022379134	0.08784309	-0.22804476	0.022447333	0.100072265	0.014065344	-0.14359412	0.0038586496	-0.22809716	0.09965037	0.050059833	-0.2455335
0.015295949	0.22376488	-0.19353728	0.15560499	0.07066742	-0.06750342	-0.17413837	-0.3350373	-0.23244128	-0.21142404	0.13338059	0.0010476458	-0.07492914	0.23197071	-0.004913524	-0.14448151
-0.052573435	0.045925155	-0.26813135	-0.0056064543	0.37681076	-0.08672749	0.09912464	-0.36823305	-0.72504634	-0.23717767	-0.6370162	0.15474747	-0.66483927	0.502399	0.8588303	-0.13375956
0.7081063	-0.8422661	-0.24429338	-0.7816706	-0.74222136	-0.6450908	0.8182769	0.7890345	-0.58938813	-0.5302998	-0.111878805	-0.5716469	-0.6521494	-0.9040597	0.76445544	0.85189897
-0.08943496	-0.22546344	0.40017486	-0.16713457	-0.058642335	0.22916123	0.37744617	0.3857919	0.32869336	0.3356381	-0.34216553	0.2580737	0.09034682	-0.37015277	0.18412718	0.28063068
-0.31653774	-0.34551683	0.6365865	-0.20880729	-0.08653704	0.5607284	0.43468824	0.5523127	0.68902504	0.619214	-0.42908895	0.4216434	0.14769958	-0.55350167	0.15458718	0.38085318
0.62915707	-0.4305644	-0.54067016	-0.406397	-0.62739724	-0.7013653	0.04626523	0.11309948	-0.5496474	-0.6107314	0.5786319	-0.7566697	-0.5719421	-0.26665235	0.058191884	0.35609058
0.38571075	0.17979553	-0.45805427	0.18724321	-0.3975361	-0.33574444	-0.5154879	-0.24561644	-0.04254362	-0.36041015	0.55235064	-0.46720722	-0.28369322	0.053735167	-0.5260222	-0.37574124
0.031314727	-0.11884425	0.15558617	-0.102968164	-0.14262716	0.06966693	0.11109928	0.19001114	0.19657283	0.15531604	-0.16443339	0.009675588	-0.013748465	-0.22528078	0.069489725	0.05604356
0.13332102	0.3230532	-0.42077938	0.30773264	0.022359911	-0.23609489	-0.38111538	-0.4680658	-0.34262443	-0.2959098	0.29034516	-0.18592578	-0.22670832	0.4488406	-0.24649656	-0.34004888
0.10757081	0.06368403	-0.17502698	0.04259308	-0.093782626	-0.023931382	-0.24248686	-0.16822407	-0.01120419	-0.15978701	0.09169667	-0.10697789	-0.13870415	0.15226448	-0.12695748	-0.209669
-0.8767165	0.80877537	-0.060775008	0.7016647	0.91119605	0.70020515	-0.14410028	-0.907486	-0.78511876	0.23533456	-1.2550492	0.9868888	-0.5062617	1.0811688	1.1695676	-0.7445969
-0.010021455	-0.46632403	0.5017639	-0.34261277	-0.28924364	-0.010550923	0.6978894	0.5444075	0.08791442	0.0970552	-0.113408074	0.077942125	0.13800424	-0.68559873	0.2493999	0.8225811
-0.084511764	0.04352809	-0.020577839	0.007902051	0.15134636	0.1641698	-0.11588763	-0.07069914	0.0893988	0.0971553	-0.28500763	0.18939841	-0.23759246	0.252894	0.122522764	-0.28652635
0.41278082	0.22624196	-0.59851104	0.28258374	-0.46974385	-0.51939803	-0.58500195	-0.4298428	-0.35313186	-0.5494254	0.76729715	-0.52250874	-0.25814316	0.3048337	-0.55138254	-0.4108346
-0.15806204	0.06969285	-0.06627944	0.026167346	0.24094714	-0.00856028	0.073064506	-0.20693175	-0.24669006	-0.08138709	-0.26526093	0.111127466	-0.1944349	0.31822512	0.44469485	-0.07342397
-0.6616929	-0.12566926	0.2806713	-0.25226232	0.51474696	0.73584926	0.25735268	0.088794135	0.15912774	0.3997605	-1.0912226	0.9115262	-0.89269286	0.20183456	1.1208199	-0.074880205
-0.053841736	-0.069653414	0.033914715	-0.056625754	0.13393666	0.10251327	0.09080998	0.0035173115	-0.07945502	-0.0023609865	-0.39465564	0.13940662	-0.3161453	0.13411613	0.34304518	-0.037756767
-1.0113703	1.0159409	0.6486002	1.1262302	0.38915738	0.83718973	0.24298614	-0.31932646	0.51797247	0.7817989	0.6337825	0.78959423	0.844649	0.08888256	-0.66797054	0.050042264
0.19679777	-0.057664063	-0.16029787	-0.09770538	-0.1991223	-0.22346349	-0.093761764	-0.051761992	-0.09605149	-0.20393635	0.17441703	-0.21415895	-0.14834048	0.00014930962	-0.07097089	0.07069048
0.3835557	-0.4199907	0.04281587	-0.402718	-0.61820686	-0.31416777	0.45361143	0.4918989	-0.2396698	-0.25153193	0.24404657	-0.29784855	-0.09901631	-0.6645821	0.15349014	0.60322607
-0.20285425	-0.17492378	0.30810404	-0.17479616	0.024694076	0.31011325	0.25531304	0.21436125	0.27095675	0.3240745	-0.36586878	0.2896991	0.00070758036	-0.21746923	0.26133814	0.19310226
-0.23730172	0.121324584	0.18839085	0.09584392	-0.0021205589	0.23992886	0.010087878	0.05782431	0.27183288	0.19118707	-0.013332131	0.16226888	0.14862303	-0.12984791	-0.21584041	-0.039534356
0.13080844	-0.1208945	-0.095880784	-0.17302081	-0.06803646	-0.09427956	0.09543227	0.02758632	-0.2480426	-0.1269842	-0.16349678	-0.041909494	-0.23885158	-0.015233071	0.20741688	0.14597021
0.79352546	-0.49925226	-0.5605733	-0.4597195	-0.77377504	-0.8347262	0.1420815	0.20834969	-0.66195476	-0.7480939	0.37404057	-0.80588466	-0.6445283	-0.44689697	0.21772434	0.40724987
-0.114182554	-0.48395312	0.47179425	-0.34751025	-0.2804664	0.35163066	0.6101891	0.6335774	0.4369757	0.4100509	-0.34995586	0.2603008	0.016198518	-0.6585008	0.24020508	0.5860355
0.06415009	0.15677594	-0.16828959	0.19410177	-0.018938053	-0.06524964	-0.35658625	-0.15238313	-0.019805482	-0.1078827	0.15785502	-0.10645749	-0.109144546	0.16481455	-0.15486649	-0.30626008
-0.05214442	0.081804305	0.064661466	0.11314998	-0.027906897	0.040042087	-0.1537665	-0.011120987	0.14903662	0.004262043	0.056059882	0.012132332	0.039835952	0.004312509	-0.13039233	-0.10352608
-0.122625	-0.06311317	0.24762106	-0.040659618	0.09437624	0.15534823	0.10356864	0.044016767	0.06798114	0.1850591	-0.31947616	0.2576645	-0.0001868582	-0.02791851	0.24671285	0.12324228
0.3053943	0.70503175	-0.3990312	0.74368787	-0.2716648	-0.24443558	-0.729785	-0.6512927	0.059314195	-0.4165771	0.6421057	-0.38138682	-0.40060055	0.59764284	-0.7437946	-0.7348053
0.13923591	0.22172514	-0.08733862	0.4201265	-0.514626	-0.15559568	-0.3600538	-0.10962075	0.16013663	-0.10344807	0.84829015	-0.29502416	0.16350904	-0.10887816	-0.9161863	-0.19933926
-0.8082793	0.6637441	0.14052494	0.6643132	0.6918729	0.6657968	-0.14973536	-0.7697759	-0.27008638	0.38171294	-0.90231436	0.7730666	-0.26929972	0.9146421	0.8397503	-0.7315802
-0.026623579	-0.13101108	0.32206336	-0.08900204	-0.26183265	0.19849253	0.20776938	0.27497062	0.29548216	0.23278722	0.013871278	0.05080059	0.1634498	-0.40513912	-0.106318206	0.25263247
0.8158927	0.46225038	-0.79850626	0.52361673	-0.76002383	-0.7575132	-0.9016134	-0.67453784	-0.27926943	-0.8681611	1.0494664	-0.8617612	-0.7289769	0.62398005	-0.8800458	-0.74527466
-0.33561006	0.28750575	0.02026335	0.23665571	0.4816025	0.13976108	0.22918908	-0.45621514	-0.3708309	0.043809894	-0.5767306	0.40330145	-0.10754659	0.51895326	0.58922803	-0.10881434
-0.027650176	-0.31760332	0.22859137	-0.32453647	-0.21204123	0.23055884	0.15328485	0.4074327	0.26636446	0.18235148	-0.35727912	0.20309533	-0.14268139	-0.3097266	0.27917695	0.17527768
0.02439844	0.29293755	-0.21422651	0.25814253	0.16665666	-0.03857339	-0.3869975	-0.38535845	-0.21154948	-0.14039387	-0.0469671	0.03365199	-0.41474223	0.4884316	0.026235769	-0.39561757
-0.07091884	0.20243615	0.13404952	0.24206129	-0.24407594	0.00973225	0.034121856	0.02158548	0.22313672	0.07344889	0.46514988	0.0241741	0.2715478	-0.15733746	-0.42492774	0.2093137
0.19498368	-0.15845568	-0.08504025	-0.07874151	-0.43451157	-0.027764054	-0.1672237	0.20469192	0.16289443	-0.083063275	0.13559483	-0.17546716	-0.12189201	-0.2205688	-0.22133106	-0.10442596
0.38267657	0.29508844	-0.46124238	0.30537516	-0.2867134	-0.3147878	-0.5647233	-0.38101676	-0.041590303	-0.33757895	0.62506425	-0.43420267	-0.26421005	0.19947985	-0.5756462	-0.53108907
0.42193642	-0.8598979	0.30956545	-0.7912249	-0.5053204	-0.332092	1.0444454	0.7581796	-0.21531476	-0.24814811	-0.4603699	-0.28601864	-0.37464404	-0.89815646	0.78314817	0.9995859
0.065669015	-0.39450595	0.20424911	-0.3722398	-0.2519228	0.18456672	0.2850985	0.39305714	0.29762515	0.16727671	-0.2908646	0.094975576	-0.13573323	-0.44747353	0.18595825	0.27657336
-0.04284319	0.2081146	-0.014384034	0.29104868	-0.045773406	0.08701158	-0.24411549	-0.17471704	0.19981644	0.027550086	0.49270982	-0.00381761	0.16475104	0.065432385	-0.416176	-0.21297239
-0.060035393	0.28393218	-0.34607956	0.2278796	0.26917142	-0.102222376	-0.22323255	-0.51573735	-0.4740108	-0.31820554	-0.0425752	0.0009630104	-0.32014754	0.5641938	0.1811732	-0.254759
-0.33054757	0.44125295	0.31126294	0.4676451	-0.0016153676	0.33109483	-0.056715786	-0.0578778	0.3618251	0.35795268	0.41475594	0.23278989	0.42697874	-0.007752666	-0.48945594	-0.022083066
0.3680931	-0.12469305	-0.15788512	-0.06616809	-0.60680765	-0.22499545	-0.23428582	0.09667777	0.110399894	-0.16736896	0.42876586	-0.37552682	-0.16319746	-0.24756509	-0.38806972	-0.09212861
0.22277172	-0.044397917	-0.32085252	-0.10093868	-0.010867918	-0.21758531	-0.15205127	-0.16289301	-0.2873655	-0.2895426	-0.07672016	-0.17440572	-0.4714925	0.1880989	0.17143922	-0.12355354
-0.42150962	0.6222232	-0.34784016	0.56354487	0.48242545	0.13824427	-0.38448414	-0.7779343	-0.6031052	-0.09531352	-0.35516548	0.36088976	-0.36137205	0.7904851	0.4376732	-0.5998479
0.3659766	-0.43953815	-0.03152802	-0.39305854	-0.33502442	-0.22539197	0.29370004	0.37442338	-0.096028164	-0.21123558	-0.31935704	-0.2095312	-0.3438091	-0.28571016	0.39903584	0.39556444
0.13651085	-0.15978003	-0.031800725	-0.16562647	-0.035469167	-0.16963096	0.1163162	-0.0283232	-0.33041263	-0.13311009	-0.19089667	-0.0072433134	-0.311299	0.017136948	0.3477504	0.12857832
0.10981746	0.32611862	-0.5192424	0.27171153	0.21102354	-0.22501165	-0.50456685	-0.52373743	-0.47014788	-0.41677302	0.016207142	-0.07517623	-0.5050237	0.52045053	0.03552788	-0.50989777
-0.84448683	0.86691093	0.11544572	0.8584324	0.79790133	0.66813004	-0.2528683	-0.8766186	-0.34008417	0.30856198	-0.78092134	0.91735107	0.027062526	0.87217796	0.54693013	-0.6926582
-0.10485633	0.4385031	-0.072437055	0.4609781	0.020979006	-0.0055382363	-0.33523065	-0.44969663	-0.027785173	-0.047797363	0.4368978	0.03865995	0.15048547	0.28216356	-0.3520413	-0.27863944
-0.23258622	0.56819594	-0.09039842	0.50249445	0.1753289	0.09571389	-0.31513694	-0.42858097	-0.05014977	0.010379047	0.31073445	0.0639887	0.12555788	0.29944536	-0.35722476	-0.32160476
-0.09042748	-0.011340161	0.24433024	0.067329906	-0.04946277	0.12795962	0.16874716	0.10929037	0.17968598	0.19004467	0.07230125	0.16386941	0.21591122	-0.18230966	-0.08443652	0.16610536
-0.01739898	0.7066594	-0.43013462	0.71274185	0.118930355	-0.15612735	-0.6700894	-0.6822571	-0.24311382	-0.2904289	0.4072108	-0.14212774	-0.16491614	0.6533175	-0.45840308	-0.7530203
-0.7471347	0.79288703	-0.109079495	0.6986087	0.65095246	0.50863546	-0.29302973	-0.8289069	-0.58332425	0.22491713	-0.8824591	0.7148834	-0.4216812	0.8654621	0.8074111	-0.7781428
-0.036953337	0.03709731	-0.1838777	-0.03843394	0.22532815	-0.05727783	0.23774719	-0.33739558	-0.47339523	-0.17887071	-0.49919286	0.12518567	-0.4066455	0.35711154	0.65789217	0.047405876
0.093133844	0.12698492	-0.4455263	0.091596186	-0.1410077	-0.16703692	-0.30219984	-0.21393211	-0.057229824	-0.23524675	0.60910565	-0.28275093	-0.119664595	0.22129841	-0.3453411	-0.24393329
-0.5098971	0.6362848	0.33128002	0.69610137	0.21841843	0.4351237	-0.12559314	-0.2788792	0.39668867	0.38680124	0.4602455	0.32591233	0.5426323	0.10689921	-0.5697326	-0.030406842
0.023314878	-0.054003987	0.1677778	0.009312273	-0.26587394	0.0361675	0.10774508	0.24371041	0.20327654	0.081551895	0.23347764	-0.01937367	0.21457079	-0.32790372	-0.23400646	0.2562762
0.51189667	0.322167	-0.6951215	0.28795406	-0.35681576	-0.5943933	-0.6434324	-0.4890394	-0.41831368	-0.6050221	0.79459894	-0.6167017	-0.4449328	0.36947557	-0.64623415	-0.5467339
0.1793663	-0.2392674	-0.041045025	-0.2670197	-0.07552849	-0.21253935	0.24714383	0.03569932	-0.3362602	-0.1981565	-0.2950304	-0.07958402	-0.41002303	0.062130857	0.44083536	0.1953563
-0.4318781	0.08247944	0.30257502	0.106445916	0.25962746	0.45983183	0.20301841	-0.03347517	0.26911825	0.3539713	-0.28510806	0.47450998	0.109273426	0.082287155	0.19193168	0.03672595
-0.020050528	0.115121596	-0.024053572	0.07931686	0.18851541	-0.06833922	0.062068224	-0.24558459	-0.20037468	-0.12013221	-0.016359301	0.092997864	-0.088152155	0.2510986	0.18347204	0.052613266
0.05863504	-0.3993885	0.36330023	-0.37283546	-0.18451354	0.19222815	0.3547526	0.43453103	0.29361382	0.206017	-0.4474894	0.13726461	-0.15289156	-0.47306293	0.25727427	0.3482689
0.48075518	-0.91310686	0.15731889	-0.8836026	-0.6894534	-0.28508854	0.8352556	0.821209	-0.028645284	-0.19608177	-0.65984064	-0.25366616	-0.6581579	-0.9288329	0.8684749	0.8230695
0.4660519	-0.22092883	-0.26315606	-0.30835754	-0.39524227	-0.30257472	-0.17899856	0.10740637	-0.11962103	-0.30543974	0.121626	-0.35375717	-0.50514716	-0.17330454	-0.03385664	-0.07179275
-0.035409942	-0.005482337	0.07972856	-0.027621128	-0.08525479	-0.0017992379	0.14422679	-0.029384512	-0.03771857	0.023637442	-0.0619916	0.029048916	-0.024437593	-0.005975481	0.046687305	0.13170892
0.15252867	-0.18559904	-0.04364938	-0.12884331	-0.18485418	-0.106950104	0.012095057	0.17072402	0.09978056	-0.07651047	-0.010519881	-0.08016141	-0.17264447	-0.21460655	0.036209274	0.08339536
-0.13841759	-0.25466174	0.39947578	-0.11660403	-0.28366864	0.34504917	0.2775693	0.5016197	0.5600854	0.32730263	-0.16282968	0.15620303	0.110453404	-0.5635324	-0.100077584	0.35099906
0.15530749	0.35480943	-0.37955055	0.32720497	0.10557039	-0.25610185	-0.5066022	-0.48097175	-0.3673712	-0.30910107	0.19395232	-0.10252169	-0.39296147	0.44837478	-0.13222879	-0.429035
0.4287095	0.54022324	-0.8273977	0.5590334	-0.45760897	-0.49094215	-0.7627604	-0.7341624	-0.250279	-0.71292776	0.9735577	-0.75972515	-0.3997317	0.6383115	-0.8202975	-0.6614935
-0.1960212	0.31006154	-0.026127974	0.26271397	0.29169965	0.11406475	-0.07723696	-0.3526401	-0.23390904	-0.046067994	-0.2305187	0.27931494	-0.11372634	0.38051432	0.20275584	-0.1801714
-0.052649733	-0.27742854	0.25457528	-0.21754982	-0.027367614	0.106907174	0.3938732	0.27882805	0.10015432	0.10444612	-0.34420934	0.14715455	-0.064488746	-0.28888392	0.30654448	0.36286774
0.1434487	-0.36553293	0.2203998	-0.34941283	-0.2702207	0.14452937	0.11130802	0.44424686	0.3248343	0.17943569	-0.17591754	0.03115055	-0.21196198	-0.488438	0.10743331	0.18344782
-0.0035779823	0.1598442	0.07404229	0.32197368	-0.34885085	0.03946436	-0.16234481	0.02447314	0.32291976	0.05979588	0.52194124	-0.089666486	0.23423027	-0.22345094	-0.55807316	-0.06758091
0.12091969	-0.24697228	-0.015424131	-0.20282379	0.087674595	-0.046897538	0.14369555	0.056524	-0.266774	-0.14819907	-0.505273	0.036297854	-0.55576175	0.03614961	0.5735374	0.12495504
-0.03728598	0.6381012	-0.50443155	0.5863257	0.1757482	-0.1533191	-0.60560375	-0.7121741	-0.5222723	-0.44183525	0.18115391	-0.12589055	-0.5703181	0.76735055	-0.13828789	-0.66550165
0.048676513	-0.23337454	0.14206396	-0.2326071	-0.339441	0.18395215	0.021345442	0.3253802	0.35192952	0.19055337	-0.19421138	0.05631715	-0.1903152	-0.37008795	0.058947973	0.026455378
0.2524574	-0.17327903	0.03904456	-0.07734447	-0.43865797	-0.08831182	0.046411958	0.2717261	0.1496674	-0.06506859	0.19513273	-0.16159421	0.022884166	-0.3309614	-0.20541477	0.15306507
-0.104729906	-0.36842695	0.5080961	-0.33723393	-0.14686482	0.40703502	0.4935066	0.5215808	0.43073785	0.4146457	-0.38471243	0.3308542	0.06845659	-0.4925404	0.16658595	0.4952164
0.04056819	-0.16170236	0.14229058	-0.0850041	-0.22444332	-0.080756456	0.27317253	0.16708086	0.049953245	-0.01031703	0.104936466	-0.12234396	0.035837963	-0.34984586	0.00327383	0.3261365
-0.94044834	0.92507666	0.14804654	0.91475177	0.948425	0.81194884	-0.11632922	-1.0014817	-0.46445546	0.517235	-1.1041033	1.0018088	-0.039774973	1.0700713	1.1495605	-0.9578709
-0.50557244	-0.36562562	0.5790043	-0.36482832	0.14223583	0.6857109	0.47302544	0.39533225	0.53616905	0.58377725	-0.6408132	0.63641196	-0.055978104	-0.2944994	0.5534575	0.23165938
-0.15605871	0.015155372	0.17017455	-0.0071437145	0.28333634	0.08864539	0.30093524	-0.110426694	-0.2545631	0.024808742	-0.51791084	0.28736192	-0.16146106	0.21022038	0.5353248	0.17637946
-0.13036995	0.24621448	0.031636648	0.23600753	-0.16088746	0.13125327	-0.14023218	0.011322703	0.2589003	0.122365825	0.27125835	0.033387844	0.1695855	-0.042994842	-0.4264275	-0.06877103
-0.09934198	-0.3827351	0.42219007	-0.43368927	-0.13571791	0.44621417	0.27873766	0.48480037	0.4279107	0.3359469	-0.5051544	0.38152444	-0.2359234	-0.3659219	0.3484094	0.2324849
-0.21020223	-0.19958861	0.4525469	-0.1790213	0.0042824275	0.34469798	0.35940865	0.37080935	0.30281717	0.32896858	-0.4373011	0.28231952	0.0009830255	-0.31385306	0.2413728	0.25905848
-0.10850669	-0.22360407	0.07842989	-0.28118455	-0.14562695	0.5352476	-0.19398117	0.33058175	0.6302807	0.40511	-0.47510234	0.2021917	-0.5847095	-0.2404634	0.012699491	-0.44305524
-0.1293885	-0.1485563	0.29201806	-0.15900356	-0.11637157	0.20825604	0.14796837	0.33933324	0.3163727	0.26067272	-0.262542	0.16615808	-0.007643267	-0.31240028	0.07756048	0.20396015
0.38747764	-0.19954298	-0.42083874	-0.18291889	-0.3317545	-0.43833452	-0.100181706	-0.11836478	-0.44863263	-0.4648113	0.30183652	-0.379151	-0.44832802	0.075952925	0.13438535	0.12281422
0.1454325	-0.60435164	0.25486943	-0.6024042	-0.50694567	0.17650072	0.46071908	0.5639772	0.29925653	0.144752	-0.42871293	0.12463314	-0.47234878	-0.5972485	0.46396133	0.49702907
0.6065373	-0.64744824	-0.3231324	-0.5741432	-0.602339	-0.6093908	0.57835954	0.53612965	-0.51492584	-0.49834505	0.32088095	-0.5870581	-0.36572412	-0.753645	0.35311875	0.7037204
-0.17776051	-0.18242691	0.38240737	-0.05408661	0.08157542	0.30826083	0.30342454	0.22248669	0.26829144	0.25468218	-0.35249832	0.27926776	0.10058728	-0.17103627	0.22992817	0.19451736
-0.27573705	-0.1578737	0.23975153	-0.21805727	0.1913777	0.44734788	0.07327807	0.19285254	0.36210573	0.33101127	-0.48167765	0.37459916	-0.16002408	-0.108569264	0.34330264	-0.02919233
0.4617906	-0.29789162	-0.06979338	-0.30899617	-0.5424516	0.057891354	-0.16823493	0.32975692	0.3895038	0.054146085	-0.18693559	-0.27417827	-0.5832033	-0.2666129	-0.016243795	-0.1680893
-0.7381511	0.80644053	-0.17347544	0.6968445	0.8001464	0.48829365	-0.3017435	-0.9343146	-0.6481756	0.13191079	-0.87612325	0.75208557	-0.25922656	0.93109244	0.82042545	-0.7210182
0.6827607	0.79840165	-0.81822896	0.80643713	-0.5712112	-0.659606	-0.95378107	-0.8458146	-0.4228674	-0.76119846	1.108658	-0.7748592	-0.44451734	0.83065563	-1.0415251	-1.0070603
-0.103958435	0.43140474	-0.063266255	0.44769117	0.038530685	-0.099855825	-0.23193958	-0.45575878	-0.062287077	-0.08902247	0.48399	-0.016035855	0.20854114	0.27058604	-0.43524283	-0.1444071
0.03844473	-0.24005988	0.029513871	-0.32152984	-0.0011354148	-0.05501414	0.501572	0.11212031	-0.2034993	-0.09472769	-0.48429784	-0.006816793	-0.2921465	0.0129193375	0.6233422	0.3935513
0.33378857	0.1544189	-0.46697843	0.122242644	-0.16362602	-0.3154434	-0.41271293	-0.28953508	-0.4371927	-0.4182714	0.11268893	-0.33695635	-0.68038666	0.36425862	-0.1362184	-0.36874714
0.010990816	-0.09185703	0.12655476	-0.043711517	0.0016725006	0.03601981	0.052617922	0.06588461	0.09886999	0.09006731	-0.13926128	0.021836052	-0.13270813	-0.09290339	0.045270875	0.12281159
-0.20059529	0.6171965	-0.40438488	0.54372615	0.34127608	0.017148392	-0.4549765	-0.77367127	-0.6065477	-0.20150277	-0.152904	0.1502975	-0.32004222	0.6938816	0.25850087	-0.63255024
-0.05813223	0.16860655	-0.03953239	0.13641983	0.062129803	0.19549908	-0.29882663	-0.037147373	0.24165805	0.081942186	0.004916619	0.11657648	-0.09484157	0.07834631	-0.18902452	-0.32812095
-0.03329286	-0.07105633	0.16024284	-0.07998573	0.016905641	-0.06571419	0.49559608	-0.029723022	-0.17676458	-0.05819079	-0.18533838	0.048168276	0.017133974	0.0379894	0.34112376	0.38119856
-0.07562538	0.39788836	-0.41809663	0.4332705	0.20261414	-0.14180425	-0.48445952	-0.5658801	-0.5237735	-0.32186404	0.08274917	0.04769311	-0.30246842	0.49325353	0.0014009686	-0.4737074
0.09992675	-0.11313767	-0.007816056	-0.11976294	-0.25018373	-0.061554294	0.10374183	0.15986256	0.037621293	0.001995097	0.29218557	-0.112561926	0.025329862	-0.2791542	-0.23943396	0.21180826
0.080241896	0.035039145	-0.110190675	-0.08905606	0.0009691275	-0.012170857	-0.12139052	-0.006886634	-0.0035540806	-0.05358133	-0.156526	0.0036868185	-0.28569984	0.06554323	0.12844956	-0.17357713
0.28171274	0.21114604	-0.41249356	0.18777983	-0.013184774	-0.2711264	-0.46650594	-0.32559112	-0.2739996	-0.41368818	0.1310778	-0.2239798	-0.58417374	0.35119304	-0.15689357	-0.49207488
0.027001848	-0.062495645	-0.07558842	0.012976051	0.11968412	-0.16226672	0.32421297	-0.37334603	-0.43617877	-0.22270359	-0.17745166	-0.0014277839	-0.23931551	0.35842928	0.5164931	0.22979303
-0.48524997	0.34251913	0.20867412	0.27539837	0.45655233	0.34463778	0.061145194	-0.23353584	0.06116003	0.27492303	-0.2471553	0.44774517	0.14326301	0.34779295	0.19374642	-0.19226758
-0.33378527	-0.6523758	0.57145035	-0.6520396	-0.06860609	0.6782199	0.62982064	0.6359444	0.5471144	0.59018093	-0.75451994	0.61822134	-0.38511997	-0.501253	0.73074734	0.52061915
0.20374894	-0.0326568	-0.09676452	-0.01860749	-0.2925988	-0.05758757	-0.13782327	0.011332605	0.08659797	-0.14442559	0.25978413	-0.22524966	-0.1229735	-0.1375687	-0.20730665	-0.03310027
0.08600422	0.039023634	-0.029074015	-0.062925234	-0.24758649	0.019859556	-0.18316945	0.083191775	0.2046611	0.023188744	0.144739	-0.10950694	-0.099185705	-0.09793829	-0.22903101	-0.11856517
-0.14474691	0.111242086	0.11573937	0.18992497	0.077249445	0.18540755	0.06034362	0.010809246	0.16290124	0.14524491	0.07737605	0.15759213	0.19509271	0.068396434	-0.10850794	0.040840846
0.5408155	-0.23942891	-0.40561664	-0.2288918	-0.498512	-0.45897055	-0.26718256	0.06397071	-0.24324913	-0.43677962	0.31679136	-0.4868755	-0.4823366	-0.13316607	-0.16528095	-0.1117394
-0.21032721	0.16388652	0.015718179	0.12189503	0.2338451	0.0080161095	0.14541978	-0.3279816	-0.20879796	0.0053064385	-0.20021193	0.22726458	-0.03361727	0.28341436	0.32708445	-0.022975562
-0.07306505	-0.15284339	0.21710275	-0.063695006	-0.0841329	0.14871055	0.12795374	0.21579091	0.16595285	0.08592372	-0.14025678	0.055949274	0.022511106	-0.1826886	0.07107839	0.17806129
-0.16563216	0.15834324	0.13613234	0.1327553	0.21693215	0.17982927	0.030972961	-0.092623755	-0.0030903586	0.095037214	-0.2423711	0.19713323	0.010839719	0.15758234	0.18666309	-0.031425107
-0.14105019	0.04810334	-0.0026974538	0.08723587	0.23294304	0.087999776	0.074634284	-0.13239294	-0.097034685	0.013138476	-0.24676126	0.14980261	-0.17705351	0.27706856	0.25378847	-0.030562986
-0.3101925	-0.30230153	0.51484233	-0.24053812	-0.08335084	0.49734572	0.3920271	0.50102085	0.5268616	0.4957812	-0.31027448	0.3789104	0.22381042	-0.43179938	0.14111954	0.33184236
-0.034115877	0.041975506	-0.03634267	0.07964862	0.0830654	0.058506493	-0.06641715	-0.09965463	0.029153937	-0.034272313	-0.06266478	0.05056965	-0.05850264	0.13668291	0.002145582	-0.046573736
-0.027312374	0.16493785	-0.13853636	0.21207269	-0.027420482	0.00091297535	-0.23809344	-0.24104017	-0.02378398	-0.110296756	0.16073216	-0.07978862	-0.09038745	0.15769899	-0.23493999	-0.2148479
-0.2743125	0.046899304	0.3432254	0.09642829	0.009091363	0.38544253	0.12543231	0.2124167	0.3647804	0.3856926	-0.08503671	0.25574777	0.1894173	-0.20768787	-0.004461813	0.15974271
0.28757927	-0.25121248	-0.038622178	-0.3055184	-0.18716052	-0.19508332	-0.0138719585	0.23189123	-0.028607883	-0.17349778	-0.094750606	-0.2211706	-0.36297813	-0.13500051	0.097662285	0.05811034
0.4822628	0.11872198	-0.5849313	0.0876066	-0.31980225	-0.5136995	-0.39355722	-0.40106392	-0.46189937	-0.67483026	0.5539501	-0.539395	-0.43154103	0.22969198	-0.33600643	-0.2319721
0.077219814	-0.14114612	0.086925864	0.015972272	-0.44571373	-0.2377556	0.26162735	0.22283593	0.04678444	-0.090564124	0.65025276	-0.15691526	0.2508194	-0.46796927	-0.25974253	0.47837672
0.07992042	0.18772304	-0.3205417	0.19524197	0.041013207	-0.1451593	-0.25348175	-0.41079673	-0.32417023	-0.27074462	0.13792704	-0.13445416	-0.305155	0.3625522	0.053463295	-0.2258201
-0.7807051	0.8942358	-0.23492503	0.80458623	0.7770513	0.6468046	-0.32907423	-0.9618622	-0.6690072	0.31127244	-0.8391376	0.80077887	-0.07604401	1.0073239	0.9001358	-0.80623424
-0.13633749	0.051365197	-0.16037261	-0.047949467	0.26534033	-0.016335767	0.15169026	-0.2918392	-0.5136478	-0.11424272	-0.55099094	0.16718182	-0.44996965	0.34442726	0.7705372	-0.044798497
0.1384368	0.08604981	-0.26098508	0.07110597	-0.23456483	-0.1973283	-0.13246883	-0.16693603	-0.062365334	-0.24915442	0.3356939	-0.24739628	-0.099525936	0.012185241	-0.23503855	-0.002940897
-0.012739961	-0.1353286	0.1291274	-0.20932029	-0.01710319	0.07682301	0.24753135	0.14724037	0.07213228	0.037451223	-0.18878792	0.075195596	-0.053459954	-0.14541163	0.25760219	0.2561132
-0.15413669	-0.05448224	0.26880383	-0.0006234089	0.040810112	0.12870014	0.18746577	0.1595735	0.17785911	0.20211606	-0.072612524	0.13082077	0.10200578	-0.16736221	0.06432885	0.13582136
-0.0052057174	0.08756736	-0.121655874	0.20517278	-0.025985457	-0.1806615	-0.06914443	-0.23150693	-0.21767329	-0.13502744	0.2592714	-0.092334546	0.04480541	0.11014794	-0.07650015	0.07379034
0.08409471	-0.2512679	0.14208373	-0.24285571	0.037889548	0.09488208	0.1481471	0.09948696	0.036292613	0.049591124	-0.41209322	0.062907994	-0.26210335	-0.0520366	0.37098026	0.1357401
-0.25099733	0.25363842	-0.004213339	0.256873	0.3601428	0.12161516	0.06791117	-0.449093	-0.24299355	0.017758083	-0.37875867	0.29744568	-0.07494071	0.43986747	0.41338867	-0.10619819
-0.022965446	0.45711428	-0.35200056	0.5217513	0.07508898	-0.12692049	-0.5234771	-0.5614951	-0.2870243	-0.28748634	0.44376323	-0.11424996	-0.04844376	0.5787673	-0.4297794	-0.54051846
-0.031005599	-0.64826673	0.6157118	-0.5650425	-0.3635627	0.29077587	0.65736145	0.6779807	0.4400306	0.36697724	-0.6930202	0.22783373	-0.24860696	-0.72252655	0.546489	0.5799383
-0.31832835	0.36740133	-0.21176521	0.33862948	0.43143296	0.10709906	-0.0719705	-0.5912688	-0.6494128	-0.030973215	-0.556233	0.35598725	-0.3734396	0.5989198	0.69235814	-0.40735224
-0.7281111	0.7837151	0.1601623	0.80126595	0.26862	0.31888014	-0.14907554	-0.41609028	0.03528228	0.09146565	0.33089194	0.69568753	0.25076646	0.27164403	-0.37494612	-0.15655087
-0.056209195	0.16815707	0.007833123	0.24408245	-0.008489784	0.013285162	-0.1007806	-0.14881137	0.029615676	-0.04296363	0.24903606	-0.031026848	0.03802226	0.12834805	-0.24103077	0.015073497
-0.20212524	0.2630349	0.10827534	0.2872565	0.08626154	0.16568993	-0.13773936	-0.18507726	0.16342154	0.13274783	0.11777482	0.13144451	0.22586852	0.12471225	-0.2079861	-0.1878523
-0.034361526	0.6318818	-0.36108643	0.6322095	-0.040840268	-0.07721964	-0.5701921	-0.5701016	-0.041125655	-0.18284775	0.75714433	-0.24236524	0.14088044	0.48866355	-0.6944689	-0.49536446
-0.8887197	0.56785154	0.79733866	0.6910402	0.15399775	0.8770674	0.38941285	0.10781083	0.7568791	0.7580964	0.5345161	0.82158685	0.76641184	-0.30670702	-0.78326446	0.38046625
0.13977444	-0.41996297	0.27950117	-0.3736444	-0.325247	-0.08006873	0.5037795	0.43661	0.020514553	0.049042236	-0.27726158	-0.087461	-0.17486906	-0.4295643	0.37090027	0.48873633
-0.18776588	0.051715497	0.19401021	0.10185507	-0.0347826	0.23992063	0.06165271	0.08536882	0.3132694	0.24538484	0.09196954	0.18834722	0.20087332	-0.19447012	-0.15060216	0.047061354
-0.17454194	-0.42239216	0.27173263	-0.42962378	0.23785162	0.4141103	0.36694708	0.3312973	0.20564632	0.30367932	-0.8187485	0.52392954	-0.6242876	-0.06333626	0.78858984	0.096739784
0.11125956	0.33257025	-0.2444085	0.33062977	-0.084268816	-0.105976075	-0.38036016	-0.29808977	-0.06819452	-0.19229263	0.30856028	-0.19928977	-0.024580434	0.22198918	-0.32680774	-0.27586362
0.48932704	-0.33838123	-0.3228038	-0.37281978	-0.4651387	-0.41212085	0.15730982	0.17860933	-0.29117107	-0.43026316	0.18546413	-0.41172147	-0.38546535	-0.35521692	0.09732967	0.24565284
-0.4985723	0.68928474	-0.18791859	0.6824894	0.50717235	0.3448744	-0.38490066	-0.7300109	-0.35025877	0.081514455	-0.32287803	0.46396813	-0.2673254	0.7718427	0.3497774	-0.63391215
0.1992681	-0.11654526	-0.29033262	-0.10306531	-0.1363984	-0.33668774	0.13219745	-0.113383524	-0.422162	-0.2935912	0.11416362	-0.27760938	-0.20268442	0.07910683	0.17744006	0.2792964
0.16210155	-0.0120469555	-0.10058746	-0.06656726	-0.019280734	-0.13546538	-0.09754864	-0.11594177	-0.09580798	-0.14065596	-0.012325651	-0.07530225	-0.26203504	0.13640748	0.044009045	-0.123601206
-0.039899092	0.04696188	0.22389573	0.15879802	-0.3390942	-0.045755208	0.21285444	0.101663284	0.20704055	0.10256924	0.48985115	-0.06326225	0.3469414	-0.40437964	-0.4092452	0.29051557
-0.22936231	-0.2129022	0.41881478	-0.17248237	-0.07472798	0.3815037	0.37837163	0.344469	0.4634226	0.38692516	-0.18767154	0.3571646	0.16400595	-0.4381067	0.08815895	0.35777047
0.00046920867	-0.29577392	0.18757959	-0.2911787	-0.07733754	0.23365733	0.03128511	0.25711587	0.26786673	0.14839695	-0.3411559	0.19560882	-0.4904431	-0.16764715	0.17674555	-0.045577392
0.05454309	0.23898779	-0.17804009	0.27198443	-0.06772696	0.0235321	-0.39133528	-0.18707351	0.08215567	-0.084369406	0.27058104	-0.080697425	-0.104082346	0.22263137	-0.2906197	-0.29730645
-0.13183922	-0.053962283	0.3082514	0.06886012	-0.2370552	0.18743084	0.31117094	0.35612515	0.3602129	0.2902616	0.13992178	0.068619944	0.3147402	-0.45751336	-0.2700882	0.33824608
0.34873778	-0.2861956	-0.21674879	-0.29896328	-0.2231908	-0.34814075	0.19829969	0.08809496	-0.53154147	-0.29918364	-0.095524676	-0.24612346	-0.5714678	-0.091950096	0.360582	0.23694232
-0.038271025	0.01724822	0.07726355	-0.050415337	0.096797176	0.049500752	0.02869429	-0.032337263	-0.034933265	-0.047499694	-0.23165284	0.16104494	-0.18525124	0.108526096	0.15555348	-0.018690491
0.42994592	0.11352873	-0.36407283	0.17418873	-0.61415935	-0.44729307	-0.37685347	-0.18142949	-0.085286945	-0.4029232	0.6863609	-0.547905	-0.22862135	0.086523786	-0.4939599	-0.2501829
-0.5864298	-0.038879607	0.41624525	0.02331813	0.23481795	0.65373063	0.27024138	0.18698373	0.38054326	0.53017694	-0.4698231	0.6795109	0.14332056	-0.10165393	0.22638302	0.14359853
-0.22086793	-0.9264897	0.6304444	-0.8313828	-0.36038142	0.65945816	0.8182029	0.8600429	0.59384674	0.60977924	-0.9125287	0.59053856	-0.7827871	-0.80432993	0.84129167	0.71120816
0.49939457	-0.3452453	-0.3529987	-0.3497873	-0.40633294	-0.49852538	0.2043475	0.1565757	-0.50126266	-0.4893884	0.16545436	-0.4685721	-0.5192765	-0.33818635	0.20608942	0.27689025
-0.40011638	0.28012404	0.18752277	0.23804326	0.4129895	0.26275557	0.10424769	-0.36577344	-0.45577937	0.1749221	-0.85241336	0.43178505	-0.34625053	0.46873987	0.78005177	-0.18857777
0.17390126	0.07087874	-0.17445685	0.020020075	-0.14728351	-0.101179875	-0.1536778	-0.02837514	0.0077824756	-0.14053947	0.21788879	-0.13474695	-0.06602368	0.026839387	-0.19168541	-0.094082065
0.21742585	-0.24899152	0.15815519	-0.19860372	-0.5167646	-0.054602023	0.119552806	0.42882136	0.22756912	0.020209955	0.19117498	-0.13845998	0.018320903	-0.48828295	-0.19921663	0.20353334
0.38728502	-0.26558802	-0.2563061	-0.18552108	-0.34842017	-0.35461602	0.012483524	-0.052558128	-0.37882203	-0.40699223	0.21000089	-0.40378532	-0.45063418	-0.063440844	-0.03290242	0.11411315
-0.018163003	0.19196388	-0.08658189	0.2197606	-0.0061288215	-0.06404927	-0.12317644	-0.24847794	-0.14378603	-0.09751284	0.24207316	-0.06554192	0.0552645	0.16127756	-0.18292303	-0.06830822
0.06372669	0.05138955	-0.15443638	0.08373418	0.017459512	-0.09644958	-0.2413395	-0.13002868	-0.06396553	-0.144283	0.003977795	-0.06681334	-0.22825114	0.19257094	-0.05456385	-0.15182465
-0.06858638	0.15102413	0.049962703	0.23911698	-0.19617671	0.07831638	-0.08970561	-0.00429679	0.16972323	0.10873292	0.33249104	-0.035503957	0.19686627	-0.14960968	-0.37199754	-0.006389007
0.6086274	0.2703634	-0.46519628	0.27414474	-0.5910531	-0.5918484	-0.44489932	-0.29453534	-0.2360734	-0.59700584	0.49014267	-0.5851517	-0.7148537	0.31754044	-0.5123987	-0.49834782
0.03284088	0.09059703	-0.030912604	0.12965426	-0.22449103	-0.109102584	0.018032322	-0.17356479	-0.03148707	-0.13755189	0.64702827	-0.12581469	0.21391436	-0.05082608	-0.27381587	0.22493283
0.2378177	-0.14658025	-0.24683194	-0.09875674	-0.17945215	-0.3764085	0.037624795	-0.084284574	-0.36647588	-0.37871084	0.11083039	-0.2734014	-0.33025488	0.022233197	0.11865202	0.10368315
-0.14639953	-0.025666265	0.22491457	-0.04440726	0.098648965	0.21074176	0.07601438	0.12045361	0.26397192	0.26355758	-0.14864461	0.1743185	0.0922036	-0.11137303	0.042701714	0.04819398
0.48914185	-0.61465704	-0.24015683	-0.49632102	-0.5644364	-0.5389698	0.58444256	0.4574022	-0.46867993	-0.48283026	0.3429354	-0.4997329	-0.33761227	-0.6052401	0.36597127	0.6504561
0.5015643	0.50436616	-0.5235686	0.56721616	-0.41816682	-0.4753708	-0.6800545	-0.49180123	-0.18639517	-0.58443177	0.7933041	-0.54446054	-0.44127867	0.47696975	-0.7517271	-0.608022
-0.07423911	-0.13121812	0.2881769	-0.13612048	-0.014421345	0.18486051	0.30045632	0.27426833	0.2574386	0.19821021	-0.24757718	0.14531063	0.10331089	-0.31483388	0.1759087	0.2755128
0.584759	-0.5388069	-0.535068	-0.57278	-0.50051504	-0.6506513	0.38263363	0.19938928	-0.6902422	-0.5934404	0.0239345	-0.63176423	-0.6692043	-0.26261765	0.49207878	0.5157196
-5.0425668e-05	0.11427433	-0.010706687	0.06128193	-0.0059456574	0.08576801	-0.10808243	-0.07006666	0.067802146	0.0179427	0.03663746	0.036720883	-0.14720827	0.11969052	-0.052653354	-0.18938392
0.024532178	0.11869177	-0.0761344	0.15217435	-0.024803773	0.102163695	-0.1686271	-0.067850456	0.15737703	0.028610872	0.17988871	0.004840418	0.051196393	0.002977025	-0.21217763	-0.21012181
0.81499827	0.5076641	-0.84442735	0.58694863	-0.7486251	-0.77274346	-0.85979426	-0.62772816	-0.47838688	-0.8396632	1.0378913	-0.8853854	-0.5909464	0.5603854	-0.96791536	-0.7865944
-0.15351333	-0.041436546	0.09798416	-0.083635114	0.16788988	0.26537564	-0.019887416	0.03053777	0.1346569	0.15915793	-0.2855211	0.23569116	-0.13083693	0.02782399	0.17987598	-0.13388486
-0.17024805	0.1143328	0.03680785	0.17259146	0.18915285	0.045502488	0.1636688	-0.25174513	-0.21541533	0.006842415	-0.101840906	0.13040473	0.0067158826	0.2657	0.19767442	0.056147236
0.073141545	0.058610786	-0.16825259	0.07438964	-0.046845723	-0.085300334	-0.08889235	-0.07856355	-0.09754764	-0.14132929	0.20604487	-0.08726677	-0.049831532	0.08015952	-0.14107013	-0.102816224
0.09918927	0.3449316	-0.23934233	0.3278722	-0.21022576	-0.1671507	-0.33075193	-0.2750556	-0.026717696	-0.1777725	0.65914905	-0.22946055	0.07055418	0.11230575	-0.54359794	-0.25488776
-0.021671476	0.81491065	-0.40449056	0.82511175	0.1265152	-0.124759935	-0.67935324	-0.84019977	-0.2836055	-0.28989208	0.3186447	-0.080637366	-0.41142634	0.8374393	-0.32371655	-0.83584535
-0.10236972	0.16230983	0.16462374	0.21843316	-0.06950764	0.085771166	-0.02868887	-0.024378296	0.23104782	0.095212325	0.27712527	0.06881664	0.19720186	-0.1475526	-0.280477	0.0057588164
-0.6577165	0.7289513	-0.1229661	0.65513307	0.621147	0.4629075	-0.33548212	-0.8083469	-0.5676022	0.15424775	-0.7715977	0.694219	-0.41239926	0.77946836	0.7230736	-0.7503352
0.18012711	-0.25317752	0.12538467	-0.16533382	-0.41297594	-0.1381186	0.47335815	0.3244592	-0.05445919	-0.08246891	0.35917488	-0.18297987	0.12095865	-0.63064677	-0.048745926	0.6430868
0.14580768	-0.124518834	-0.09522743	-0.12121301	-0.19221966	-0.12454687	-0.020037608	0.094375886	-0.09660502	-0.111143865	0.0014577003	-0.10868478	-0.14790927	-0.062298737	0.06232429	0.042563513
0.4185157	-0.49764132	-0.08549779	-0.39048567	-0.4080694	-0.34271947	0.26501206	0.3837499	-0.21397668	-0.25802705	-0.1183005	-0.25625923	-0.34684297	-0.40081537	0.25951457	0.4280869
-0.6084883	0.5663974	0.51850456	0.63601404	-0.21483894	0.52093816	0.21094371	0.02554806	0.56478596	0.51240474	0.7111542	0.443773	0.6300389	-0.35014877	-0.7578391	0.30682826
0.051714573	0.11573506	-0.11588203	0.14774914	-0.052188467	0.0025870749	-0.25193477	-0.11399265	0.041796453	-0.054643523	0.059650533	-0.010130462	-0.11945824	0.10187576	-0.14824575	-0.21015729
-0.049049325	0.37082335	-0.13093215	0.32027727	0.14667785	-0.034898415	-0.3010296	-0.32102188	-0.09881522	-0.086161084	0.095537715	0.088349186	-0.053354125	0.28730682	-0.13617988	-0.3382703
0.063667536	0.1406644	-0.117295206	0.10563397	0.009362929	-0.19973946	-0.08125996	-0.17521037	-0.18891415	-0.17635207	0.07092547	-0.071070336	-0.13333252	0.18296064	-0.03762907	-0.059598032
0.5522011	-0.18840416	-0.33339775	-0.22613092	-0.41142693	-0.5419085	-0.13774505	-0.029483631	-0.4048925	-0.52970105	0.18006109	-0.53158593	-0.57355326	-0.067638986	-0.07769235	0.035830118
-0.16180421	0.37443906	-0.25656664	0.3644556	0.18950446	0.19446667	-0.4736862	-0.41722688	0.13944991	-0.06676131	0.30144286	0.024837658	0.02634845	0.40303275	-0.44611642	-0.4889067
0.30278444	-0.16526903	-0.18974945	-0.10981308	-0.42116046	-0.41185886	0.23739028	-0.02449532	-0.2989829	-0.3177385	0.5335683	-0.41812098	-0.021149615	-0.2544932	-0.1617568	0.3461073
-0.14247896	-0.09431684	0.21452546	-0.14368889	0.086769365	0.17745166	0.24700809	0.1530433	0.17777322	0.18163517	-0.36742517	0.22545893	0.030632704	-0.10499966	0.2540473	0.1330479
-0.089799576	0.18807082	-0.123312145	0.13527726	0.17126839	-0.024130035	-0.09722815	-0.39746448	-0.345727	-0.14633302	-0.08244408	0.115292706	-0.16081204	0.31208426	0.16320474	-0.16365439
0.17607506	-0.22590986	0.19975206	-0.19736922	-0.31518656	-0.1306769	0.36390102	0.37514022	0.12724097	0.04691101	0.09221174	-0.1476741	0.012053447	-0.49032855	0.030073754	0.41345844
-0.11274823	0.1847042	-0.1243105	0.14915511	0.26780933	0.04764652	-0.2079438	-0.26144534	-0.14694683	-0.029759528	-0.26237124	0.11249508	-0.34526584	0.36856633	0.25664994	-0.42625985
0.04982816	0.18203014	-0.09951952	0.25162193	-0.0685786	0.065713204	-0.2572023	-0.0865071	0.15322581	-0.00961953	0.14261706	-0.06788997	-0.1529909	0.07644862	-0.2515207	-0.35766745
0.21545385	-0.17042352	-0.39819983	-0.13875045	0.07838143	-0.3538283	-0.050251547	-0.18765259	-0.5323703	-0.44860712	-0.36764914	-0.15730108	-0.6888513	0.25782964	0.4699764	-0.054053634
0.18962921	-0.46664995	0.28838244	-0.44063145	-0.36344987	0.08177132	0.34341598	0.48814157	0.33158052	0.19570538	-0.28770587	0.07523185	-0.17478125	-0.58612955	0.24877799	0.3565946
0.24913603	-0.26126334	-0.16719867	-0.16266975	-0.16469744	-0.20232432	0.15776762	0.007937246	-0.25847223	-0.23324335	-0.10886444	-0.15732694	-0.28604957	0.02566719	0.30376592	0.20886621
0.3673649	-0.857435	0.28881124	-0.7238078	-0.46282536	-0.023990104	0.8451705	0.78522265	0.060944792	0.022570712	-0.6263725	-0.104704976	-0.518282	-0.8061635	0.8382567	0.7472213
0.22892782	0.030673409	-0.26460776	0.03223305	-0.11451821	-0.20751761	-0.2094679	-0.15407935	-0.16278656	-0.25948876	0.15807374	-0.16995658	-0.23300709	0.062458143	-0.113335304	-0.108521044
0.005786775	0.08795842	-0.08784851	0.08604005	0.15553166	-0.0059971856	-0.121886544	-0.2296463	-0.23738614	-0.1539548	-0.098766804	0.0034935712	-0.14877063	0.2795578	0.16904445	-0.05205081
0.1267622	-0.17315607	0.17350979	-0.15673809	-0.29884025	0.014886057	0.26731494	0.31349277	0.122704566	0.03648713	-0.04031748	-0.08289329	-0.036400616	-0.29370555	0.07459555	0.36830714
0.6340683	-0.16813639	-0.4634294	-0.13352698	-0.67316085	-0.5636119	-0.2676008	0.039537497	-0.24289739	-0.57716906	0.63341916	-0.6172833	-0.39534536	-0.17933819	-0.43267792	-0.07366653
0.23759712	-0.19462825	-0.1851045	-0.23144467	-0.22399868	-0.2759	0.20112915	0.08327097	-0.31463426	-0.29797423	0.24877615	-0.27235615	-0.14415872	-0.117883965	0.1695958	0.3274018
0.028296206	-0.35296047	0.1553943	-0.45484304	0.01889683	-0.020500423	0.55501956	0.27294892	-0.20222336	-0.07927578	-0.48103884	0.0038813183	-0.31352854	-0.16706803	0.6937497	0.43603635
0.7848927	-0.8284805	-0.39203665	-0.8133496	-0.66226804	-0.7864333	0.7151347	0.6790418	-0.7294164	-0.726174	-0.07221953	-0.71703655	-0.8085132	-0.76779044	0.7668142	0.83069193
0.43102548	0.036857232	-0.41734558	0.088732846	-0.38824734	-0.42239022	-0.33250067	-0.25880852	-0.29176658	-0.47247404	0.5911217	-0.4418866	-0.27276343	0.09882463	-0.3753356	-0.15679352
-0.20476834	-0.69800717	0.6034663	-0.66762584	-0.38262329	0.597047	0.50494295	0.75285286	0.69258463	0.5840651	-0.6968431	0.472159	-0.1668762	-0.7167959	0.46661043	0.43590564
0.39833462	-0.3535958	-0.2467605	-0.33685762	-0.40012982	-0.4039032	0.19034454	0.17627448	-0.3598673	-0.33896562	0.22880906	-0.4150689	-0.24514213	-0.26569456	0.11096346	0.35015255
-0.26274776	0.15937923	0.15118219	0.21542163	0.18584703	0.25298417	-0.03005013	-0.098239906	0.071448386	0.20865123	-0.16957466	0.29069757	0.074535705	0.10298724	0.11136149	-0.05742694
-0.21468878	0.47083732	-0.28804606	0.44611377	0.4001414	-0.09546316	-0.40351018	-0.61937207	-0.3887616	-0.29538196	-0.012482177	0.13081159	-0.21906655	0.59749264	0.112175174	-0.45892823
0.6044356	-0.74886644	-0.27793744	-0.6875543	-0.53182137	-0.5295655	0.700087	0.7195327	-0.49066988	-0.47684675	-0.2053197	-0.5303212	-0.6173496	-0.7320671	0.69998235	0.68728507
0.051381577	0.105787896	-0.086230986	0.14103943	-0.24121729	-0.04954388	-0.1824004	-0.18419997	0.07660679	-0.08477848	0.45686468	-0.15591258	0.0011494968	0.08164885	-0.44427967	-0.16427974
-0.179475	0.16469274	-0.05956359	0.15999901	0.19963741	0.056148812	-0.026917167	-0.31391498	-0.18154551	0.008360346	-0.19894461	0.18714233	-0.10254685	0.3852966	0.17406699	-0.14348279
-0.07182422	-0.6073885	0.42190987	-0.6176684	-0.32268742	0.47612616	0.4426158	0.6573695	0.50762737	0.49559388	-0.6933959	0.36968797	-0.51756555	-0.5405876	0.5824949	0.36144814
0.32146	0.29595888	-0.40229902	0.3135364	-0.33659023	-0.344454	-0.49611264	-0.32992977	-0.15258117	-0.34969425	0.50387496	-0.39544693	-0.31123286	0.27015403	-0.48329827	-0.38714617
0.30644098	-0.294047	-0.07731701	-0.27897233	-0.4972642	-0.26557544	-0.006965708	0.23138437	-0.08120355	-0.24087122	-0.018560644	-0.27034423	-0.26446775	-0.39238766	0.03931349	0.1444472
0.065452166	-0.32528463	0.16109623	-0.2841836	-0.12532882	0.1122023	0.10171869	0.2560568	0.23238084	0.066578954	-0.30700448	0.06934819	-0.2013896	-0.2719973	0.23436712	0.12185756
-0.17727643	0.026657088	0.08500801	-0.013215981	-0.0018100778	0.23539406	-0.059590552	0.10288503	0.35499156	0.2365631	0.070159376	0.13692597	0.113385856	-0.059809253	-0.16941182	-0.060556535
-0.1132666	0.36728144	-0.102637194	0.33692878	0.17547709	0.10174675	-0.21621384	-0.29623947	-0.06447393	0.0063935197	0.0830821	0.060596816	-0.024371656	0.3051371	-0.06525591	-0.23983763
-0.049621973	0.4078909	-0.21825235	0.3689103	0.1608516	-0.029507315	-0.34918165	-0.4810955	-0.1070052	-0.06906979	0.43806168	-0.04636397	0.13451393	0.42678952	-0.41252315	-0.36250386
0.16880254	-0.22233789	-0.10021689	-0.1605307	-0.26592597	-0.19607459	0.031963695	0.11647147	-0.06351866	-0.16430941	0.049501553	-0.14506881	-0.12629452	-0.16460663	-0.05450369	0.121463835
0.050770003	-0.010717574	-0.022341395	-0.08816431	0.08735901	-0.12472757	0.10608998	-0.12258278	-0.22228321	-0.12332741	-0.13096702	-0.040257134	-0.21298735	0.16360615	0.22299723	0.030977556
-0.3013741	0.101822406	0.41498923	0.14085914	0.014820773	0.33812305	0.26745	0.17976883	0.36754307	0.37195885	-0.02181568	0.2915141	0.36062866	-0.1851966	-0.17282496	0.2705659
-0.106229074	-0.3578376	0.26582396	-0.32980776	0.079517804	0.27656132	0.3664266	0.22636688	0.124169454	0.210871	-0.5801306	0.32227707	-0.4016836	-0.1578712	0.62469155	0.20631437
0.14234005	-0.10033439	-0.36383915	-0.10742058	0.123260655	-0.28841215	0.052772302	-0.32229537	-0.6070403	-0.30303583	-0.27463374	-0.094817154	-0.496094	0.2654743	0.6203073	0.07330958
0.037915934	-0.02334978	0.08731503	-0.034730323	-0.07657807	0.038504854	-0.015582834	0.10557807	0.13275096	0.021556841	0.0044337385	0.057144172	-0.13888049	-0.048535984	-0.08958826	-0.04926585
-0.52442956	0.6915666	0.5507052	0.77351874	-0.11119911	0.5100363	0.3384034	0.15636608	0.62449396	0.56413215	0.9263566	0.41209695	0.79431885	-0.4413873	-0.90991145	0.49571782
0.22646615	-0.19988808	-0.27615726	-0.17952539	-0.1465658	-0.29284978	-0.0047300174	-0.14391533	-0.3826778	-0.32010877	0.008295039	-0.21830487	-0.4280134	0.14157769	0.2744208	0.09860135
0.42831346	0.0926851	-0.45941755	0.0567278	-0.36010635	-0.3879426	-0.31370854	-0.28177932	-0.27779138	-0.48164627	0.55487037	-0.44596168	-0.35780224	0.18603556	-0.39083064	-0.17491116
0.26126775	-0.43924317	-0.068917885	-0.29795215	-0.3206507	-0.30788904	0.38220596	0.30244175	-0.31030276	-0.2869942	-0.057408802	-0.29678565	-0.18437214	-0.3054257	0.31525016	0.5309617
-0.08461117	0.01736899	0.17587858	0.041791037	-0.13512893	0.08978612	0.048308186	0.12460594	0.16870622	0.10988122	0.07558528	0.09297949	0.059891365	-0.12701498	-0.13806772	0.009251457
-0.041409303	0.053015683	-0.030255783	0.06266753	0.0045771464	0.18441112	-0.15171824	0.033889182	0.26556534	0.0464249	0.00868105	0.048400763	0.016888577	-0.030516654	-0.13515037	-0.13657464
-0.097794764	0.32848713	-0.18783398	0.32938468	0.19555992	-0.031938978	-0.3050074	-0.4724529	-0.2523921	-0.1571884	0.23215523	0.013021001	0.018894771	0.34125116	-0.09658894	-0.31048095
0.5518283	-0.63570035	-0.2880565	-0.5987187	-0.53642446	-0.5678083	0.6739118	0.71076995	-0.47915304	-0.51046056	-0.22268936	-0.49736142	-0.5829018	-0.68599945	0.6444329	0.6371716
0.20551999	-0.1181761	-0.11373021	-0.12105146	-0.13471146	-0.055013712	-0.1238807	0.11165903	0.089999706	-0.0500158	0.060332295	-0.1376134	-0.28584877	-0.037483208	-0.08921208	-0.04404226
-0.15886977	-0.029458819	0.12638749	-0.011748947	0.09777481	0.16039479	0.09552824	0.014724707	0.1682643	0.089221165	-0.20680541	0.19906496	-0.07350501	-0.0017824133	0.11281154	-0.0072082956
0.0076604593	0.2505743	-0.21353482	0.16046634	0.13953446	-0.09582202	-0.14230579	-0.3182974	-0.24714293	-0.19188662	0.025088362	-0.060711082	-0.21869749	0.29291615	0.059046242	-0.18702035
-0.025784729	0.06222336	-0.12618905	0.04210971	0.12696859	-0.018185372	-0.067867786	-0.14756888	-0.12977862	-0.047165647	-0.034534466	0.027954556	-0.19246988	0.23436096	0.08485515	-0.1230753
-0.064180635	-0.3517196	0.2579435	-0.30416238	-0.0050971354	0.23053923	0.3306085	0.32713714	0.12240488	0.15207762	-0.46836847	0.26017436	-0.1467732	-0.2771156	0.38797563	0.32366455
-0.48110768	0.3527547	-0.0139427185	0.39614564	0.5695553	0.37712044	-0.074034296	-0.52778727	-0.30889815	0.122348234	-0.5969441	0.5378472	-0.1970046	0.57206637	0.6448874	-0.33464244
-0.074341886	-0.29551017	0.3181046	-0.26541513	-0.0034358122	0.17638399	0.43702936	0.29470015	0.14911184	0.21333298	-0.42263228	0.26498112	-0.19314475	-0.24090116	0.41887662	0.31182167
-0.28486702	0.38445804	0.18558888	0.43475753	0.028899744	0.10186147	0.023217216	-0.15667398	0.111676626	0.11215467	0.3797516	0.19219337	0.40825722	0.071118675	-0.40703547	0.0831043
0.12627415	-0.14678498	0.08556935	-0.15138318	-0.18630233	-0.084295206	0.15587354	0.24079905	0.058809474	-0.078412645	-0.11194379	-0.115066804	-0.067368634	-0.2418258	0.070271544	0.13565674
0.14182566	0.05630049	-0.17564142	0.10274304	-0.077510096	-0.2388286	-0.20768318	-0.18540943	-0.2519465	-0.26307443	0.23015904	-0.12306786	-0.19170381	0.12859456	-0.12146356	-0.14471537
0.022274634	-0.03433695	-0.012301591	0.0028670896	-0.0018075117	-0.06617975	0.20716213	-0.11084153	-0.15101689	-0.04096594	0.09733439	-0.062416315	0.05032304	0.07317076	0.09067639	0.15798691
-0.0012141676	-0.33226728	0.18034175	-0.32645175	-0.013688447	0.09685815	0.28617367	0.2162244	0.08594607	0.09911359	-0.41088146	0.15474162	-0.22654468	-0.22619653	0.38345677	0.19199708
0.1880777	-0.07846775	-0.18163116	-0.026667884	-0.16896242	-0.10077247	-0.1771147	-0.013366808	0.10663638	-0.10517567	0.1536344	-0.17686239	-0.12955412	-0.052111655	-0.11496106	-0.081299186
-0.53391755	0.41229165	0.04028375	0.29924545	0.5236348	0.43590444	-0.12500273	-0.3785406	-0.18820946	0.21760033	-0.45485738	0.53849775	-0.13481924	0.4426949	0.33309993	-0.3456821
0.04541517	0.39024916	-0.16280182	0.44951966	-0.0729278	-0.10574062	-0.3996607	-0.34128773	-0.03142439	-0.17640056	0.6080682	-0.17484409	0.037465937	0.22490022	-0.55626625	-0.34484372
-0.14554723	0.36571565	0.040335327	0.40957588	0.007969735	0.20200482	-0.12577367	-0.18870704	0.2053278	0.13995022	0.34769714	0.116971105	0.17028973	0.07273779	-0.4205349	-0.1794031
0.16740048	0.09105528	-0.13348547	0.13885535	-0.27007994	-0.22184744	-0.30118674	-0.10707491	-0.052531302	-0.14770542	0.3322155	-0.20644735	0.016694516	-0.011800562	-0.3350575	-0.18276514
0.29135722	-0.21839386	-0.11470049	-0.20887363	-0.27447242	-0.26523823	0.16942628	0.14138103	-0.18303886	-0.258414	0.2577574	-0.2121167	-0.040744416	-0.1819992	-0.039918836	0.3296417
0.18165118	-0.22678642	0.0606916	-0.20941044	-0.2782728	-0.29661343	0.5776325	0.29411423	-0.1802403	-0.15530501	0.4694379	-0.18246879	0.018069625	-0.5223849	0.020395724	0.6493661
-0.13860326	0.050815556	-0.036645334	0.027511878	0.22177608	0.014478472	-0.036643498	-0.2872506	-0.2390252	-0.09953913	-0.3814143	0.10993966	-0.26021123	0.34362337	0.5129405	-0.078380994
0.16939257	-0.13646801	-0.05714959	-0.1820845	-0.040309627	-0.15536276	0.114518195	0.07907509	-0.21294409	-0.16304153	-0.33420095	-0.06129469	-0.42659116	-0.025666133	0.41254887	0.085367665
0.056213852	-0.280734	0.1447813	-0.35332063	-0.026437975	-0.043888893	0.39447445	0.17884962	-0.17019597	-0.034011852	-0.39072788	0.029819863	-0.20777223	-0.12657827	0.4739498	0.38700798
0.16807155	-0.22483173	0.007832177	-0.15814683	-0.2017206	-0.22580568	0.17355436	0.13974717	-0.14527965	-0.17783466	-0.03584568	-0.14138491	-0.12259286	-0.123229474	0.17152579	0.17796502
0.13705687	-0.11312056	-0.08821272	-0.098117545	-0.12058036	-0.14438406	-0.0801427	-0.02693907	-0.052467395	-0.16845986	-0.04877859	-0.12970257	-0.17054199	-0.016110443	-0.015305832	-0.031785764
-0.79923093	0.9822573	0.6956785	1.0164931	-0.19077654	0.75936466	0.24272217	-0.022745948	0.77423686	0.7840146	1.1754905	0.5559465	0.9384098	-0.510003	-1.1651803	0.5198814
0.37915266	0.099949844	-0.41992432	0.04734937	-0.3835791	-0.36843807	-0.32431534	-0.26957384	-0.227936	-0.43683836	0.5746508	-0.44032285	-0.34594756	0.13503069	-0.2942759	-0.17325555
0.24676868	-0.118475474	-0.24825996	-0.09417025	-0.059881274	-0.297701	-0.0062535633	-0.110659644	-0.33991712	-0.28879085	0.09115849	-0.16811796	-0.33702636	0.109658904	0.11324091	0.011996473
-0.6012195	-0.93590045	0.7406321	-0.8837571	-0.095321484	0.78898704	0.8795331	0.89354014	0.7447309	0.749185	-0.9384608	0.76571244	-0.7366711	-0.79654175	0.927206	0.76119095
0.095895566	0.014743332	-0.11894196	-0.046460077	0.0016916749	-0.06417573	-0.014544576	-0.11645979	-0.14490797	-0.14432281	-0.11198603	0.011732641	-0.21105951	0.057642274	0.13920864	-0.024059687
-0.48419553	-0.44357106	0.6772315	-0.3347852	-0.088784866	0.6616775	0.64893377	0.68997395	0.62778795	0.6461595	-0.52136934	0.57529044	0.17102751	-0.7119611	0.2912415	0.6798063
-0.67495483	0.7881604	0.4511268	0.84568644	0.21685469	0.6182773	0.04238847	-0.14749597	0.45690948	0.48426965	0.56618273	0.51554435	0.637739	-0.049574964	-0.66071624	0.051524203
0.15019675	-0.25992796	-0.026959745	-0.1803304	-0.16017689	-0.13762362	0.071094505	0.1605196	-0.12055941	-0.14665343	0.008214702	-0.103837974	-0.23791596	-0.105569385	0.048612434	0.16146529
-0.28846785	0.3711591	0.19263649	0.40857667	0.09126905	0.18044855	-0.0021241629	-0.23139165	0.1665068	0.20444213	0.19769701	0.2049291	0.39406097	0.06701304	-0.2639633	0.07495263
0.0018922894	-0.093985364	0.14421178	-0.0439636	-0.07885078	0.029726781	0.18650511	-0.007695308	-0.02357484	0.08156327	0.055091586	0.018288963	-0.0017302749	-0.09967253	0.01597727	0.14456779
0.038616206	-0.518685	0.36407378	-0.51452774	-0.28349292	0.31156805	0.3771028	0.4663278	0.38555524	0.34660876	-0.4495702	0.20276144	-0.36576113	-0.47346675	0.41272548	0.30137375
0.54861724	-0.3060251	-0.52365047	-0.2128299	-0.45480195	-0.54563016	0.04253041	-0.0029562311	-0.45011067	-0.5084707	0.4867347	-0.55755323	-0.421993	-0.17112325	0.045787435	0.22920634
-0.0021934065	-0.4629935	0.37310553	-0.41339248	-0.23713149	0.19528864	0.43119267	0.5827479	0.21341065	0.23282616	-0.3928227	0.15151465	-0.16426916	-0.49035034	0.38074538	0.43156227
-0.08864215	0.22792585	-0.077073045	0.29757023	0.03333568	0.038977567	-0.17059557	-0.20972778	-0.02789568	0.03695687	0.19588768	-0.00071722345	0.1686624	0.21606068	-0.14613366	-0.08812508
-0.14259735	0.023895046	0.3941297	0.08833667	-0.082106695	0.094181016	0.4089875	0.22162695	0.19497195	0.24458861	0.27316335	0.15644237	0.2960128	-0.35518187	-0.18239383	0.39309102
0.023434147	-0.05818838	-0.011975046	-0.05503349	0.051559564	-0.008726349	-0.019517587	0.028467435	-0.038975712	0.0015022847	-0.07633446	0.07194358	-0.1251984	0.015952501	0.1501042	-0.04615491
-0.35825077	0.3146976	-0.012964532	0.32405907	0.41103756	0.3063683	-0.1575095	-0.28713086	-0.1011993	0.06906988	-0.29783675	0.41289157	-0.0027262701	0.40206036	0.25650135	-0.2572437
0.1866433	-0.011358177	-0.33499232	-0.04478556	-0.23823777	-0.21378829	-0.13202308	-0.07586117	-0.11609751	-0.28344506	0.20834783	-0.30264962	-0.14961298	-0.047818884	-0.10903261	-0.090927795
0.50894874	0.004997644	-0.43306565	0.00927435	-0.46921945	-0.49231488	-0.2863761	-0.15510754	-0.25787947	-0.557958	0.41546217	-0.5017573	-0.55142546	0.06637916	-0.24708408	-0.18339482
-0.03789987	-0.0697042	0.14866588	-0.0672109	0.0040803207	0.19085722	0.10230662	0.123570636	0.12146233	0.1823423	-0.14183459	0.17555213	-0.069752686	-0.115496434	0.05274419	0.09820107
-0.1270944	0.11321945	-0.046973072	0.06682215	0.16942163	0.111766316	-0.11436371	-0.07979057	0.0053062965	0.09149271	-0.23666003	0.16018407	-0.2636072	0.27465454	0.16782826	-0.2258507
-0.43178767	-0.6308927	0.66721773	-0.63893914	-0.022197537	0.76359344	0.7014817	0.612601	0.5258542	0.60666764	-0.9075683	0.70309895	-0.40305045	-0.48604882	0.7799432	0.47604957
0.38083673	0.59197146	-0.42343122	0.68457305	-0.6099887	-0.37076238	-0.53853106	-0.4217227	0.044013005	-0.42523474	0.8522866	-0.4780633	-0.024828838	0.30302206	-0.7196514	-0.5692523
0.036325697	-0.14001825	0.076773554	-0.13563034	0.033392213	-0.0012141151	0.12973757	0.059125174	-0.02077889	0.021787878	-0.2649452	0.052166	-0.21297002	-0.017330598	0.19913922	0.066743694
-0.22357534	0.010938831	0.34338227	0.11232711	0.110194504	0.27153513	0.3244107	0.085204944	0.20619275	0.25818512	-0.04463585	0.27007398	0.18448228	-0.09538027	0.010045839	0.2614942
-0.18536994	-0.02979704	0.21496126	-0.071599714	0.11313971	0.27003676	0.17586946	0.08493867	0.19179243	0.18049124	-0.30213764	0.28687537	0.0066040056	-0.069098935	0.19199125	0.05694595
-0.14176795	-0.16186	0.39836583	-0.11968333	-0.19250701	0.27546084	0.20589027	0.35985768	0.44899336	0.27653947	-0.19023494	0.21387492	0.08347883	-0.4815144	-0.0895606	0.25517783
0.29319513	-0.23387939	-0.12623978	-0.20254679	-0.436899	-0.21055593	0.0051817577	0.13996796	0.010854862	-0.13540894	0.22083426	-0.2639712	-0.1263634	-0.25063917	-0.13374999	0.2015303
0.003243917	-0.014850694	-0.083134316	0.022191793	0.06633565	-0.021372559	-0.10697222	-0.1118266	-0.12448687	-0.05014752	-0.19951822	0.091455944	-0.24592967	0.13794473	0.20385759	-0.1674307
-0.14030379	0.18386887	0.010533584	0.22824909	-0.008277685	0.10087654	-0.17762552	-0.12396706	0.15989684	0.10254824	0.204621	0.10369121	0.08759553	0.11519012	-0.23641728	-0.15994096
0.42088214	-0.018356556	-0.3536718	0.07933269	-0.3087574	-0.37844962	-0.30983853	-0.17899871	-0.3026853	-0.40660712	0.3458801	-0.43852353	-0.4580236	0.118792176	-0.28270355	-0.17816608
-0.28832793	0.24584334	0.2338287	0.18923368	0.049850762	0.3231658	-0.027266266	-0.025825754	0.30053622	0.28781843	-0.010193624	0.25930986	0.25353655	0.0046948367	-0.21731853	-0.11654046
-0.0027411976	-0.41798303	0.2629113	-0.3802523	-0.10245791	0.30127367	0.27500466	0.38437378	0.31553662	0.25975066	-0.44898656	0.14800593	-0.2678454	-0.3972935	0.33533996	0.27968246
-0.41278267	-0.728934	0.68625844	-0.7198246	-0.06796678	0.7117987	0.69819796	0.7524066	0.62832713	0.69790703	-0.79856163	0.6256598	-0.3901222	-0.6887197	0.74534714	0.56703603
0.18192348	-0.10406796	-0.13001314	-0.10591093	-0.2661805	-0.121324964	-0.13381004	0.067383826	0.052095126	-0.19403952	0.17899133	-0.15921491	-0.19122517	-0.07686174	-0.17767833	-0.07383797
0.19922523	-0.23170316	-0.00993032	-0.22132531	-0.20676276	-0.11797685	0.216573	0.1940815	-0.08526881	-0.11655258	-0.14482419	-0.04597843	-0.22395365	-0.19998774	0.16063683	0.19258621
0.19011329	-0.16150133	-0.08592298	-0.10721733	-0.18730693	-0.14372556	-0.05922845	-0.043317772	-0.14177366	-0.22676179	0.06650404	-0.18648486	-0.3065436	-0.04163438	0.046905324	0.05717476
-0.42083007	0.45329309	-0.29157048	0.46231076	0.5126965	0.27108175	-0.36525375	-0.62411267	-0.5082019	-0.13341236	-0.64263064	0.41449428	-0.37802672	0.68190956	0.6265878	-0.5858329
0.33468246	-0.2133821	-0.17812477	-0.21093298	-0.28047815	-0.28903383	0.028833926	0.1531097	-0.117907174	-0.2039932	0.09901516	-0.3239019	-0.25289482	-0.20161636	0.02988089	0.17431818
0.06666918	-0.4852365	0.03883546	-0.49547648	0.0061923945	0.04743844	0.34869596	0.21187207	-0.020421794	-0.033415362	-0.6928802	0.07003004	-0.5165106	-0.06966338	0.77565306	0.22022295
0.30421758	-0.27380607	-0.2559701	-0.25770596	-0.21789506	-0.28285572	0.018067867	-0.11257646	-0.3837627	-0.38599005	0.0980744	-0.3068656	-0.44360253	0.053856693	0.21042673	0.09126355
-0.13646124	0.12610982	0.09687097	0.12028797	0.04370822	0.15168577	-0.06524723	-0.021162856	0.0973801	0.089280196	-0.0027297512	0.07868439	-0.033085942	-0.0036410554	-0.10656672	-0.061384257
-0.31234708	-0.3435732	0.2967841	-0.31251064	0.15984693	0.5055037	0.24335341	0.3334047	0.3271291	0.3824387	-0.6536705	0.46204853	-0.3071805	-0.16456515	0.5198066	0.016376361
-0.2848873	0.2813598	0.027970126	0.23998426	0.31752318	0.13573167	-0.13787135	-0.41079387	-0.11492335	0.06138407	-0.21062358	0.2790511	0.03273963	0.37417212	0.10998656	-0.25113532
0.187523	-0.50714135	0.21459964	-0.407987	-0.40808865	-0.0069819493	0.44308826	0.4422578	0.102006525	0.08323014	-0.25549078	-0.0050509917	-0.19732028	-0.5439357	0.2679565	0.50891185
0.13869447	-0.01998637	-0.13512497	-0.039163508	-0.04210606	-0.11749682	-0.14151813	-0.061422937	-0.042408835	-0.09837474	-0.10738878	-0.11636845	-0.2918978	0.10982707	0.057704546	-0.1443391
-0.40254432	0.26941788	0.17232883	0.24314745	0.34357575	0.38596392	0.0055058063	-0.18369596	0.083872266	0.24757884	-0.23896354	0.35579678	0.098572634	0.24916275	0.17339106	-0.11263663
-0.53432834	0.71411717	0.5386926	0.74974656	-0.3161993	0.4637733	0.16636673	-0.041797675	0.56920385	0.5779679	1.1074024	0.39332154	0.71683747	-0.64018375	-0.9298947	0.44542357
0.01743907	0.18971044	0.0015414023	0.14544646	-0.08968057	-0.014115344	-0.10807808	-0.14959261	0.025060417	-0.082663484	0.36281735	-0.052914213	0.0644281	0.09280838	-0.27099487	0.03155945
0.33847862	0.116090246	-0.3286831	0.17963949	-0.18646932	-0.30232096	-0.3072406	-0.2693419	-0.22656228	-0.39005074	0.33124676	-0.32270512	-0.41138047	0.17679933	-0.2554446	-0.31044248
0.16248201	-0.12462413	-0.073331915	-0.12724842	-0.22285432	-0.22020212	0.14962952	0.010294152	-0.1578673	-0.15085237	0.33415997	-0.21234672	0.005904797	-0.14591289	-0.14434603	0.20689996
0.095324524	0.410541	-0.2818586	0.37702164	-0.055351917	-0.12622571	-0.42577305	-0.48290408	-0.23002356	-0.26101583	0.33899054	-0.1712797	-0.10279978	0.41576514	-0.4274753	-0.42496946
0.14138891	-0.3691152	0.10490696	-0.3116732	-0.18313567	0.08416168	0.12621488	0.3588209	0.26352313	0.121955514	-0.26249036	-0.005720345	-0.2104446	-0.287629	0.22314638	0.10502053
-0.016089328	-0.19742134	0.22295398	-0.1365696	-0.097926274	0.08375089	0.20856488	0.17841032	0.08847203	0.10839916	-0.22686677	0.1366221	-0.08648536	-0.15700388	0.18885764	0.20598026
0.14967653	-0.06696408	-0.19338526	-0.06310067	-0.16403466	-0.12617733	-0.24322362	-0.053972863	-0.014957641	-0.12452623	-0.005790179	-0.11051963	-0.257001	-0.012022051	-0.05879685	-0.17873162
0.4386564	-0.56077707	-0.21225585	-0.5714057	-0.3826021	-0.3902698	0.20485227	0.2218654	-0.33161503	-0.36633864	-0.17740817	-0.30341774	-0.57555276	-0.27576298	0.48741487	0.36147624
-0.08518141	-0.026921235	0.08107453	-0.026701847	0.102453664	-0.017673863	0.19802684	-0.0513112	-0.050354753	0.015514527	-0.12166114	0.032520775	0.009902549	-0.030025376	0.18526047	0.19657083
0.332615	-0.26931646	-0.21904308	-0.2972272	-0.26048017	-0.19586548	-0.02794083	0.15606861	-0.23907785	-0.24877593	-0.19915193	-0.25002757	-0.5263604	-0.09640205	0.2718037	0.074182875
0.4072453	-0.41848642	-0.18518466	-0.30133054	-0.45752627	-0.40789562	0.32964754	0.22526506	-0.2699407	-0.38886428	0.25558516	-0.34609896	-0.21940777	-0.44474155	0.15319462	0.44789425
0.30843952	-0.13468306	-0.21715194	-0.12715559	-0.34796664	-0.27233222	0.036568526	-0.020740945	-0.14502604	-0.22558244	0.27783242	-0.3558701	-0.1708554	-0.1083408	-0.044009484	0.09148481
-0.166028	0.2593824	-0.088687174	0.2853555	0.15665296	0.053508848	-0.18699208	-0.29915935	-0.058018614	0.00053727475	0.12802076	0.0716363	0.033799995	0.31203392	-0.14489788	-0.16247836
0.29766744	-0.22808978	-0.0103620235	-0.09515697	-0.45133188	-0.34115556	0.2478166	0.20563649	-0.19833526	-0.21824801	0.4079366	-0.32366034	-0.010862912	-0.41222885	-0.1077527	0.36293286
-0.65991366	-0.5373782	0.6898214	-0.52992594	0.14089485	0.74742573	0.664493	0.6882551	0.70230305	0.69134414	-0.82956547	0.6770791	-0.108602874	-0.61265385	0.655203	0.40446004
-0.001451918	0.021011638	-0.0809313	0.060498185	0.08341238	0.001411069	-0.12570813	-0.17358452	-0.099404216	-0.024972774	-0.098319784	0.020915959	-0.19927098	0.18430902	0.11159327	-0.16305332
-0.401777	0.3665686	0.22877474	0.47877494	0.22119345	0.2450988	0.12789708	-0.27638438	-0.0020068202	0.28853792	0.117400534	0.3478917	0.34742743	0.1743418	-0.16558278	-0.022579655
-0.1926071	-0.0024510343	0.122014105	0.031944536	0.102624565	0.2138226	0.049519908	0.0071471697	0.1863063	0.15919004	-0.1978965	0.1852008	0.0007231232	-0.006670446	0.093742624	0.02587638
0.21495385	0.3248851	-0.38033608	0.21778703	-0.05412342	-0.25537008	-0.42334333	-0.40036812	-0.3698919	-0.2947335	0.20998447	-0.21842666	-0.30945605	0.45177522	-0.20922944	-0.4503047
0.29196894	0.41321915	-0.5529873	0.44214883	-0.2883647	-0.30364573	-0.5744478	-0.54085547	-0.19208758	-0.46739927	0.5746095	-0.43118188	-0.3751923	0.4298045	-0.53928876	-0.56095016
-0.5615557	0.5268183	-0.10132461	0.47915688	0.5593514	0.5289193	-0.19109148	-0.60595673	-0.4147708	0.17567202	-0.80006105	0.6387441	-0.19903104	0.63954407	0.6751663	-0.51469207
0.25338992	-0.31086245	0.032010652	-0.21132645	-0.44269508	-0.25380173	0.28772026	0.42569312	-0.013891796	-0.06834819	0.28427798	-0.22743163	-0.0043456564	-0.5470947	-0.16299692	0.35730618
0.19744253	-0.32361826	0.13281049	-0.36300093	-0.12945618	-0.119640626	0.2517218	0.2835338	-0.084802076	-0.07422296	-0.35109425	-0.018387647	-0.2832254	-0.19782199	0.43505892	0.23144412
-0.12950635	-0.24617359	0.28695747	-0.21091156	-0.07215295	0.3979775	0.18432607	0.3365969	0.41263303	0.32642123	-0.2739706	0.25179312	-0.019222517	-0.36550993	0.14854038	0.1381439
0.04498578	0.035705686	-0.09639421	0.011795583	0.017101891	-0.057330064	-0.022354128	-0.086451024	-0.14736862	-0.06794814	-0.022141451	-0.0215977	-0.09686543	0.14022359	0.077998504	0.014283432
-0.031161847	-0.027916467	-0.12008694	-0.1458445	0.1952146	-0.014061415	0.012902559	-0.11553923	-0.3452063	-0.16514106	-0.49567986	0.06165145	-0.393131	0.21739604	0.48954883	-0.012212284
0.1319208	-0.22102667	-0.046243712	-0.1978776	-0.1132703	-0.15172164	0.20192927	0.083490826	-0.05632839	-0.09496593	-0.0450687	-0.1570671	-0.18118037	-0.11893409	0.16162579	0.16996944
-0.606251	0.64105576	0.16578719	0.6219723	0.45755038	0.49963978	0.017857172	-0.41625133	0.067899756	0.32727745	-0.18901251	0.5227659	0.26821882	0.46216664	0.113183625	-0.25894034
0.25919977	0.11889222	-0.35811788	0.1017692	-0.14869837	-0.35174033	-0.31752312	-0.34600234	-0.37340608	-0.3829211	0.21228603	-0.29477194	-0.42019194	0.24086139	-0.14104353	-0.22475676
-0.55294424	0.29211614	0.15136226	0.33068383	0.41081968	0.5215493	0.018064236	-0.16897185	0.10868974	0.35519192	-0.2618039	0.54159415	0.13217959	0.19977354	0.09118233	-0.2184835
0.5816047	-0.029674437	-0.50614446	0.08708533	-0.47984266	-0.47319287	-0.48056233	-0.10993675	-0.15361592	-0.56195503	0.46251726	-0.5195373	-0.5516068	0.0891792	-0.43737894	-0.3136301
0.5748231	0.39885774	-0.6684923	0.37439293	-0.4236319	-0.6039616	-0.656586	-0.5141649	-0.3570455	-0.6319179	0.77131706	-0.63075614	-0.44266626	0.3398149	-0.7458932	-0.6135403
-0.6444507	0.65669066	-0.04287923	0.6539784	0.6171915	0.54245424	-0.2892216	-0.7100124	-0.25293148	0.22873318	-0.44536725	0.59190744	0.016865479	0.691089	0.39148954	-0.5942216
0.46373618	-0.116136745	-0.41311568	-0.18075259	-0.32609108	-0.35528883	-0.33799642	-0.044754352	-0.2937418	-0.40674272	0.28341225	-0.38565022	-0.41764665	0.001778567	-0.24428327	-0.27825555
0.11651482	0.032118887	0.0020536776	0.073011085	-0.3252666	-0.096511476	-0.095335595	0.056327138	0.12912539	0.035221335	0.32651395	-0.105842605	0.0573186	-0.11736731	-0.25858536	-0.03399579
0.21801074	0.1361463	-0.2313994	0.1326237	-0.26763833	-0.10413792	-0.3377978	-0.068027765	0.018747382	-0.16957146	0.26133895	-0.18943176	-0.2409937	0.068760395	-0.24920152	-0.3032688
0.28014728	0.22059008	-0.37216344	0.14767134	-0.18933041	-0.255167	-0.35259682	-0.36221406	-0.24229483	-0.39736623	0.43638727	-0.32625893	-0.2815968	0.2208991	-0.31828952	-0.2488239
-0.033911027	-0.19206165	0.23857084	-0.16280493	0.002219868	0.17647481	0.22995493	0.2713886	0.14279231	0.18684375	-0.26851457	0.15037473	-0.05210114	-0.20042077	0.21265933	0.16971791
0.3131767	-0.47045654	-0.062104933	-0.38785377	-0.36891046	-0.4107415	0.6183124	0.40902793	-0.37972546	-0.2654727	0.07062097	-0.29703218	-0.20357612	-0.49644613	0.3647176	0.7093809
-0.24836269	-0.3640412	0.4663099	-0.37289998	-0.083237104	0.44656634	0.39395422	0.4322761	0.46033442	0.5007346	-0.5182977	0.45525447	-0.008170795	-0.44791532	0.30565193	0.34925064
-0.13632908	-0.45589408	0.40122834	-0.30906966	-0.21416055	0.30715057	0.53555363	0.43950385	0.3816576	0.30619955	-0.41356555	0.30335662	-0.051790845	-0.437744	0.31483263	0.42784965
-0.052116822	-0.4118927	0.41159183	-0.33942366	-0.47018328	0.20150527	0.6386009	0.65870905	0.3485916	0.29289877	-0.21725012	0.19670342	0.09199257	-0.7729126	0.16436808	0.67586255
0.21312714	0.17030695	-0.17825523	0.17263739	-0.26200882	-0.18994677	-0.28176007	-0.214389	-0.11274897	-0.2230677	0.43920997	-0.26824644	0.032089002	0.0734203	-0.36076277	-0.124426566
-0.06685994	-0.20329387	0.33934358	-0.19312587	-0.030980196	0.2711622	0.2830045	0.30321333	0.27752802	0.22690237	-0.32302117	0.21507914	-0.086774305	-0.30908287	0.22749679	0.17661868
0.028263343	-0.13666219	0.07355453	-0.21629645	-0.09178827	0.02313757	0.051793586	0.08704	0.099702105	-0.019657113	-0.1185467	-0.026627922	-0.18338987	-0.07702265	0.08680606	0.050599433
-0.05718858	0.0049753156	0.12756434	0.0023645938	0.06003451	0.04142023	0.15927693	0.035868913	-0.02462028	0.10795524	-0.18884303	0.18221325	-0.061807096	0.024491625	0.25295535	0.043012217
-0.013486915	-0.09074301	-0.028129961	-0.13026324	0.082748614	0.06270194	0.18473493	-0.032522235	-0.16481185	0.0036744014	-0.26986748	0.109735474	-0.2288599	0.05059084	0.29285425	0.075666815
0.25587577	-0.057397936	-0.12534277	-0.010590796	-0.45029166	-0.13559726	-0.18355359	0.09110502	0.08060947	-0.11047885	0.24989745	-0.24779183	-0.08002702	-0.16870753	-0.23461327	-0.0002902769
0.12087135	-0.4800018	0.34601623	-0.4775279	-0.1075122	0.17384541	0.40158108	0.5032119	0.24485974	0.22649626	-0.5750203	0.13788807	-0.3637419	-0.433627	0.5982508	0.35856456
-0.14984557	0.41324738	-0.16867727	0.37769237	0.25156492	0.0366336	-0.31523743	-0.44518074	-0.27241057	-0.139421	-0.07435927	0.13168332	-0.28484768	0.43662322	0.0652413	-0.3702745
-0.15467794	-0.18416123	0.38994345	-0.05680766	-0.20595354	0.17517677	0.31533095	0.25275558	0.25638783	0.22633624	-0.032558396	0.13925299	0.2164013	-0.3284926	-0.015760485	0.34069476
0.5632916	-0.4538646	-0.3391944	-0.38068712	-0.5492964	-0.6383964	0.36423653	0.28886014	-0.4914803	-0.53910595	0.5917251	-0.5772722	-0.23477343	-0.51643074	0.14300887	0.53911173
0.08128063	0.15354285	-0.19979474	0.08953405	-0.004231109	-0.13514836	-0.22537488	-0.27907032	-0.22771893	-0.19437043	0.09628836	-0.09169515	-0.27538726	0.2776784	0.005521144	-0.22194377
-0.009185499	0.0072713667	-0.21022238	-0.05230756	0.10380269	-0.1347705	-0.064440824	-0.20199107	-0.33662075	-0.2384615	-0.2153899	-0.06553933	-0.37789133	0.2826439	0.3062437	-0.11569736
0.5063663	-0.686423	-0.22886653	-0.61299133	-0.61385804	-0.5205755	0.8358401	0.6696335	-0.45426905	-0.4365518	0.11148695	-0.47224334	-0.40131357	-0.8563767	0.57320267	0.84605765
0.0062745675	-0.0131097175	-0.11338988	-0.017695276	0.10801429	-0.052625824	-0.0590548	-0.12556724	-0.24351405	-0.14205933	-0.2586041	-0.012575779	-0.4050959	0.2164107	0.26909795	-0.10873447
-0.2750196	-0.2616212	0.33003932	-0.1612591	0.045721255	0.34971967	0.31617582	0.31794935	0.34696224	0.39175335	-0.30449593	0.4133301	-0.008719528	-0.21507072	0.22731933	0.19721636
0.05077409	0.030773597	0.0011962996	0.06374557	-0.17786695	-0.16023935	0.21081328	-0.014097859	-0.13167155	-0.0715948	0.39540383	-0.11236505	0.14942203	-0.16211489	-0.18799579	0.35152775
-0.13438648	0.30157956	-0.13213027	0.34341988	0.08891665	-0.031818133	-0.333527	-0.41343963	-0.121768214	-0.10899997	0.17326532	0.006318383	-0.08266843	0.35635495	-0.114692606	-0.29099125
-0.50766516	0.5337509	0.4261177	0.66745466	-0.11369044	0.4655993	0.05668629	-0.045649346	0.44984904	0.38779825	0.7770535	0.34705254	0.58766055	-0.16031215	-0.6619447	0.20913814
0.2697949	-0.19758813	-0.18117453	-0.19260402	-0.19109152	-0.27287227	0.07081788	0.07267767	-0.21478972	-0.27248222	0.12846836	-0.26187843	-0.22602518	-0.13873924	0.15149122	0.16011749
-0.35773283	0.22065806	0.12985583	0.19245028	0.20780338	0.25104183	0.09384114	-0.1512918	0.09384497	0.24462718	-0.07339873	0.30319706	0.18895747	0.13651995	0.0021964125	0.025481334
-0.24437067	0.2716675	0.09796848	0.21985206	0.26131505	0.19037102	-0.015612707	-0.22903411	0.0016297098	0.1600733	-0.08483175	0.20079611	0.11462979	0.28629264	0.031748973	-0.08684153
0.07141385	-0.018852932	0.106806315	0.037756924	-0.42138764	-0.015753232	0.027399464	0.22325306	0.1921607	0.046593353	0.37351492	-0.042119056	0.23621514	-0.42376465	-0.364506	0.15901513
0.19234388	-0.4385157	0.16238414	-0.4399914	-0.22425601	-0.15837432	0.75983953	0.41346124	-0.23866549	-0.11656216	-0.45154506	-0.07439684	-0.2945323	-0.4576346	0.63830733	0.67062455
-0.2907333	0.10491947	0.15505113	0.08521786	0.22264376	0.27035657	0.025033975	-0.023827525	0.1409572	0.2305842	-0.21990716	0.34274456	0.076504156	0.09385253	0.109739155	-0.082300775
-0.7315981	0.65252745	-0.01308302	0.6307677	0.6404601	0.5153633	-0.18673752	-0.69053996	-0.3989623	0.32750583	-0.7418249	0.6386331	-0.11582501	0.8028077	0.7485915	-0.5803086
-0.1134979	-0.23231584	0.2004378	-0.30594024	0.047685776	0.32315165	0.13700764	0.30162528	0.28744826	0.3080693	-0.5333095	0.28006724	-0.51951927	-0.17378518	0.41307354	-0.046308335
-0.029228851	0.03797179	-0.08299024	0.030385356	0.1555105	0.076319285	-0.15047218	-0.14231852	-0.10670483	-0.08601404	-0.20976073	0.074074306	-0.34801775	0.26888177	0.1437921	-0.19000156
-0.025915226	-0.022308655	0.15045115	0.120490514	-0.1987392	0.119283184	0.041546743	0.19920224	0.2793139	0.13346505	0.28519613	0.041517366	0.22031268	-0.3278466	-0.33589128	0.2617685
0.096166916	-0.06747424	0.035141815	-0.09276824	-0.131538	-0.09783749	0.16203098	0.07381957	-0.009604171	-0.07130778	0.12472026	-0.07956376	-0.02233894	-0.14710522	0.057933766	0.1693223
0.41190287	-0.17985746	-0.2406204	-0.0950864	-0.44716215	-0.3738301	-0.15884793	0.087871246	-0.17627789	-0.30744368	0.37135077	-0.38681975	-0.215001	-0.13280524	-0.18402311	0.02242068
-0.59901345	0.58350784	0.37800193	0.601267	0.29796115	0.5363321	0.06488785	-0.32296446	0.17420635	0.44806013	0.124427654	0.489514	0.44812456	0.1857005	-0.25342062	-0.057483416
0.10076768	-0.083833106	-0.06603207	-0.08486038	-0.1556209	-0.15734987	-0.075575285	0.046833202	0.04014925	-0.07510086	0.17462607	-0.16866134	-0.11263916	-0.11714592	-0.11397847	0.04165466
0.304574	-0.41715354	0.16437025	-0.33286622	-0.5650748	-0.26112783	0.46422857	0.4913014	0.030584563	-0.11633899	0.13549615	-0.2596685	-0.013938066	-0.7879632	0.0153092565	0.6662057
-0.46666265	0.45793012	0.029424168	0.46674287	0.35516512	0.35083175	-0.051705893	-0.46573108	-0.19811489	0.2558747	-0.36502692	0.5520783	0.0831731	0.43114242	0.26727858	-0.2752995
-0.1744994	0.056791455	-0.026605243	-0.02421154	0.29975802	0.16921754	-0.04221876	-0.12086402	-0.092096776	0.022604374	-0.3774906	0.25551647	-0.33411592	0.24907558	0.3907951	-0.16137573
0.2872055	0.49623427	-0.2557878	0.54783887	-0.58519393	-0.28906465	-0.5192789	-0.3591216	0.060283083	-0.22635591	0.8825412	-0.44815415	0.13414341	0.07978981	-0.827543	-0.40335527
-0.6265458	0.5584022	0.22438021	0.5103305	0.24023983	0.41407266	-0.085398905	-0.19782643	0.14690517	0.213722	0.24053541	0.5730158	0.36587292	0.09717787	-0.34493575	-0.123754025
0.31179932	0.021859966	-0.33613628	-0.059892166	-0.2162802	-0.38314047	-0.30846837	-0.22606945	-0.33322147	-0.41831335	0.15595978	-0.29854962	-0.44758046	0.1571959	-0.09890279	-0.10840948
0.22591777	-0.11242837	-0.27192828	-0.18392801	-0.12099071	-0.31210944	-0.016004112	-0.07052814	-0.30829322	-0.30688187	0.037388902	-0.23785712	-0.3444885	0.003771294	0.1437856	0.066394255
0.07318516	0.13872531	-0.2551027	0.07749522	0.0111959465	-0.20011386	-0.22796579	-0.31583148	-0.3803333	-0.29547596	0.072991766	-0.079936065	-0.3681899	0.2831814	0.12709568	-0.19987011
0.211076	-0.39876777	0.09319026	-0.35922545	-0.37978324	-0.26117316	0.5532314	0.3644249	-0.14675795	-0.12048867	0.122796774	-0.2794845	-0.01592341	-0.5269549	0.13201556	0.6344027
0.3448454	0.07414422	-0.33362946	0.119655296	-0.29632628	-0.2748996	-0.3367261	-0.27352145	-0.10407545	-0.323217	0.38029546	-0.37271073	-0.44453508	0.2334294	-0.26522323	-0.23552884
-0.09401589	-0.5384707	0.33375907	-0.434239	-0.11587561	0.3653682	0.42217878	0.40763822	0.31097773	0.3150754	-0.5687119	0.34685197	-0.31794518	-0.4136738	0.6071053	0.3730224
-0.07684393	-0.12252829	0.11952091	-0.07041304	0.04656022	-0.03325947	0.28050607	0.04079194	-0.1337805	0.060019534	-0.10849679	0.15746397	-0.014352058	-0.068662286	0.1780743	0.24203944
-0.0052798456	0.02082244	0.048370685	0.055918027	-0.115620546	-0.07749864	0.031513978	0.059182256	0.007997296	-0.0566123	0.22648501	-0.08386084	0.044684988	-0.120526776	-0.06259829	0.084446035
0.23034774	-0.153508	-0.08812261	-0.1463907	-0.3243206	-0.093057014	-0.083038874	0.16707359	0.09164082	-0.08357001	0.13834037	-0.21652651	-0.1670502	-0.24221247	-0.18298069	-0.0110641075
0.3367026	-0.44442636	-0.11921361	-0.44479993	-0.34062976	-0.2908419	0.48110282	0.41413754	-0.2616157	-0.3162398	-0.17541276	-0.23887067	-0.3750726	-0.47873518	0.47897285	0.49959788
-0.099123165	-0.16515262	0.30246463	-0.080353454	-0.1112351	0.16373721	0.28726053	0.24681036	0.21828938	0.16750453	-0.081234775	0.10265232	0.12025102	-0.2449497	0.10920669	0.3569468
-0.68639886	0.7909291	0.6502883	0.7677562	-0.3612044	0.6793762	0.19983456	0.07492738	0.7697861	0.70065176	1.0842632	0.45831245	0.7957181	-0.5977171	-1.0220451	0.49673158
-0.6260017	0.69479066	-0.18568337	0.6849103	0.67699796	0.47819594	-0.22172233	-0.78104043	-0.58907455	0.15748446	-0.7949551	0.67455304	-0.32490748	0.8735646	0.7777572	-0.64151424
-0.18439585	0.053813104	0.23803385	0.14207903	-0.11090256	0.17636809	0.099257834	0.15667321	0.23393974	0.1974501	0.24589211	0.08026994	0.24228245	-0.1586087	-0.24036244	0.09146279
0.08396866	0.24527575	-0.2719728	0.2260207	-0.052612435	-0.10813227	-0.42189902	-0.30427873	-0.14148238	-0.2382267	0.33787757	-0.18289307	-0.056524944	0.23070964	-0.3339637	-0.280137
0.016211927	-0.15057854	0.037756972	-0.18136583	0.10976988	0.019191936	0.20734076	-0.02263816	-0.30587867	-0.0837472	-0.3191713	0.0428334	-0.3327709	0.07194016	0.4356682	0.08320025
0.044491116	0.086935155	-0.09323987	0.02212857	0.0037701458	0.074008815	-0.34171888	-0.024001561	0.11637938	0.017796451	-0.022105433	-0.025822995	-0.3644968	0.12400861	-0.13173755	-0.33678603
-0.20178024	0.11426602	0.2269827	0.12729444	-0.009291674	0.17912252	0.04410827	-0.00764313	0.19559203	0.24183652	0.17630872	0.13883217	0.2379137	-0.10863616	-0.24776812	0.14719188
0.03656519	0.3098586	-0.33146235	0.3171999	0.02855712	-0.11087419	-0.5478556	-0.44227648	-0.35464114	-0.26491404	0.24162173	-0.06843664	-0.2831427	0.36534062	-0.18683274	-0.6237416
-0.018540274	-0.10731477	0.11465379	-0.026292898	-0.13139717	0.052837208	0.13673596	0.18230447	0.12419385	0.043403525	0.049711544	0.07720756	0.099963576	-0.17662124	-0.045904454	0.1435724
0.25824615	-0.3794527	-0.17542623	-0.42680877	-0.28439108	-0.2914612	0.33865762	0.24954489	-0.33482844	-0.3140106	0.004207945	-0.24068695	-0.29240155	-0.25972673	0.32490036	0.38886967
0.17179513	-0.0761488	-0.023469908	-0.030311055	-0.35649738	-0.05121591	-0.07959874	0.0714298	0.11829817	-0.011416864	0.18239883	-0.15101251	-0.06118438	-0.14957094	-0.14102434	0.014707722
0.13288784	-0.15029353	-0.24907541	-0.18591903	0.044762973	-0.23032282	0.24187426	-0.14622013	-0.55067116	-0.3590895	-0.27904534	-0.08793322	-0.37212703	0.063364916	0.4825394	0.18746707
-0.007933292	-0.12599751	0.10378619	-0.18258694	-0.029643578	0.078123696	0.12528518	0.2126816	0.11684559	0.1270412	-0.24792854	0.04497723	-0.08398796	-0.11796618	0.22482124	0.11647471
0.17841518	0.120755896	-0.41206348	0.1759115	-0.07919689	-0.29900956	-0.28288808	-0.37680247	-0.3667379	-0.36504465	0.3609094	-0.21821001	-0.25995976	0.2626748	-0.1126903	-0.22596164
0.21248098	-0.14287205	-0.049369816	-0.16578254	-0.2890839	-0.24033113	0.15482995	0.1596994	-0.11354381	-0.18760753	0.16108458	-0.23006447	-0.05689456	-0.23269819	-0.035026364	0.17403051
0.37172064	-0.2814139	-0.17135186	-0.25062838	-0.4654573	-0.36307234	0.09927599	0.2647938	-0.19217041	-0.31430876	0.09193532	-0.35716414	-0.30128413	-0.35009992	0.06434117	0.26086602
0.15879068	-0.07921346	-0.30262995	-0.012385546	-0.030751532	-0.29230273	-0.08114443	-0.24818496	-0.36378	-0.25513664	0.026976295	-0.19731133	-0.28521678	0.21102275	0.08589771	-0.049023904
-0.22143361	0.42654166	-0.08507637	0.36791578	0.18154228	0.033634473	-0.26498565	-0.36838835	-0.109077334	-0.075841755	0.08230686	0.1144756	-0.007208041	0.34448135	-0.13270569	-0.35985324
-0.27307087	0.33458126	0.21516395	0.47929868	-0.12523903	0.13729519	-0.053270277	-0.051415447	0.2946177	0.20318332	0.5625676	0.13057646	0.4476265	-0.12936185	-0.6007933	0.13366918
-0.29308614	0.32795444	-0.11992505	0.23562662	0.32788512	0.13818637	-0.08264988	-0.36259264	-0.39677036	-0.030579964	-0.39241382	0.24803862	-0.23222767	0.4066432	0.44717845	-0.32395127
-0.09566247	-0.20645493	0.2791361	-0.12981755	0.031299923	0.26851887	0.28878576	0.25965008	0.23904921	0.22768076	-0.27101496	0.18648158	0.039084878	-0.25385678	0.20253797	0.21473825
-0.0315879	0.3542953	-0.119504645	0.29483902	-0.0546367	0.10720718	-0.3121997	-0.2494496	0.10095896	0.026683815	0.45377824	-0.048808802	0.1560052	0.2130518	-0.44267124	-0.3230109
-0.16981585	0.10834215	0.1640193	0.13553207	0.0071867895	0.23340692	-0.020755062	0.08998305	0.24678415	0.1551107	0.110601336	0.11703438	0.1942139	-0.09129947	-0.21803871	-0.03953978
0.17644392	0.09489697	-0.14995715	0.09393982	-0.08210302	-0.060603086	-0.30941874	-0.11847795	-0.08433868	-0.14512399	0.07894617	-0.11260449	-0.12360049	0.052732453	-0.08842503	-0.22365703
-0.49573916	0.5418156	0.6166653	0.6286783	-0.0807485	0.44771233	0.3607416	0.10833346	0.6532337	0.5507369	0.7991953	0.30980593	0.66952544	-0.43641293	-0.7374793	0.40174344
0.14802885	0.2227414	-0.16549224	0.23111638	-0.16701546	-0.12127083	-0.26697126	-0.20772962	-0.09416081	-0.22029726	0.33316675	-0.24403793	-0.09983159	0.2135248	-0.28273898	-0.21742861
-0.7149324	0.7457226	-0.11790468	0.69878674	0.67076117	0.6037698	-0.27668488	-0.7864178	-0.54683095	0.26455787	-0.7775137	0.7199885	-0.3533427	0.8207783	0.6735533	-0.7278897
0.38705108	0.34484753	-0.43327165	0.38534054	-0.31549817	-0.35815838	-0.5149643	-0.36811772	-0.1434962	-0.40802443	0.43415052	-0.45988053	-0.5780308	0.39410797	-0.44289207	-0.57552904
-0.017620925	-0.6480462	0.37847424	-0.6446045	-0.14970033	0.27626824	0.66013265	0.5614448	0.2274197	0.2971604	-0.8212149	0.28245747	-0.5122365	-0.48190418	0.8614823	0.4351031
0.0294579	-0.08432246	-0.006584079	-0.039391987	0.08697724	-0.06141362	0.041461866	-0.060744043	-0.25626773	-0.059835568	-0.21629705	0.055860326	-0.2979949	0.1620634	0.17021008	0.06340888
0.4137177	-0.36610204	-0.33641157	-0.33884627	-0.43996102	-0.51015097	0.1960082	0.1534883	-0.37446144	-0.4404963	0.24868105	-0.47893497	-0.39679724	-0.23644595	0.19601193	0.26485106
-0.32049948	0.43457302	-0.045758843	0.47108456	0.23954037	0.16816501	-0.21616621	-0.4151939	-0.10768315	-0.0072252755	-0.1302189	0.29961416	-0.07801549	0.42571357	0.18673344	-0.36114627
-0.09732579	0.1499511	-0.070324466	0.14008464	0.13328324	0.07668893	-0.2180335	-0.101697765	0.034524746	0.014304021	-0.08971691	0.10964715	-0.21760774	0.15358031	-0.010129352	-0.28071842
0.30891082	-0.047041442	-0.25032473	-0.06043479	-0.21221904	-0.3007908	-0.21179204	-0.017241629	-0.04587565	-0.2924365	0.3187074	-0.35531843	-0.2590197	-0.026267711	-0.239682	-0.117791474
0.08206375	0.08519029	-0.20802349	0.1395577	0.034242436	-0.028583208	-0.27999422	-0.15008494	0.010157167	-0.1430063	0.05606081	-0.091633506	-0.24062201	0.22562572	-0.17245393	-0.26791066
-0.49637517	0.45330393	0.3958638	0.5237221	0.15298404	0.40544918	0.13701484	-0.054411553	0.33642995	0.38428062	0.35779172	0.37477106	0.5468045	-0.075278014	-0.44664872	0.14767355
0.3574678	-0.34339857	-0.09937478	-0.25286716	-0.5249632	-0.41778988	0.5079065	0.39912724	-0.31951374	-0.26865554	0.5380945	-0.37867564	-0.04018009	-0.62093055	0.027854895	0.70707554
0.24838291	-0.03995305	-0.21424374	-0.057898957	-0.13247691	-0.26440218	-0.13009366	-0.047297955	-0.13914189	-0.19606495	0.24024573	-0.23439445	-0.16809195	-0.02429532	-0.120548576	-0.04202611
0.508561	0.37826812	-0.5314536	0.4130185	-0.4487154	-0.5200927	-0.47177264	-0.4653866	-0.048317436	-0.47069395	0.6618315	-0.5730562	-0.4205904	0.395389	-0.4898821	-0.52078635
-0.53854346	0.6515808	-0.06462061	0.65767956	0.5000995	0.33070675	-0.27843854	-0.55717516	-0.28187332	0.11876235	-0.12067918	0.42871103	0.09495382	0.52003944	0.12534298	-0.48198673
-0.29067087	0.08125992	0.28589252	0.04962571	0.3000402	0.3157848	0.21721151	-0.07039913	0.11460353	0.2806328	-0.41743687	0.40288302	-0.027223539	0.17875423	0.34277737	0.019811274
0.2362119	-0.3341263	0.0146788135	-0.251233	-0.32801914	-0.17829679	0.11272013	0.24291047	0.02250213	-0.08803693	-0.049260255	-0.17904624	-0.13493776	-0.33193773	0.024722569	0.2970357
0.2372601	-0.33975402	0.09374215	-0.34762257	-0.20780118	-0.1971784	0.3329675	0.3570474	-0.16463812	-0.112223394	-0.38515243	-0.08535654	-0.4206782	-0.2423285	0.35021612	0.3530586
0.1326286	-0.4482397	0.25448063	-0.41846645	-0.2732814	0.010027485	0.41111758	0.4218641	0.13591547	0.07331234	-0.27303767	-0.06819769	-0.09810838	-0.43620947	0.22771911	0.4333542
0.20870887	-0.2756561	-0.117676325	-0.26274583	-0.20217559	-0.20554635	0.13449913	0.14240438	-0.10021718	-0.18809852	-0.07787086	-0.18681218	-0.28900242	-0.20665091	0.24669689	0.17327645
-0.39786366	-0.11833377	0.532522	-0.1186631	0.14369121	0.5787639	0.4092167	0.38801163	0.52155596	0.57416964	-0.33869416	0.48608783	0.29558462	-0.33089885	0.15949644	0.29171202
-0.6768654	0.7200713	-0.1282814	0.6712731	0.6742603	0.5330687	-0.2573512	-0.7208765	-0.5330997	0.20999986	-0.87313014	0.7356091	-0.27964237	0.7970531	0.7739605	-0.7276995
0.23641536	-0.12118937	-0.29582623	-0.12051555	-0.070719436	-0.24676849	-0.11713991	-0.1522079	-0.34589845	-0.27398044	0.060280938	-0.25322777	-0.37268797	0.15195125	0.09993936	-0.03475793
-0.6569523	0.8458291	0.6727752	0.8210589	-0.20641743	0.5615497	0.33009318	-0.012521309	0.6585785	0.57385874	1.0471307	0.46232298	0.7117004	-0.728199	-0.96242565	0.54495543
0.12247517	-0.028594004	-0.19872108	0.01391293	-0.10736677	-0.12573794	-0.17749101	-0.069517046	-0.10521285	-0.12816267	0.16479582	-0.110030726	-0.16634376	0.090272546	-0.10373198	-0.05515093
-0.08573297	-0.18319657	0.15826204	-0.2201744	-0.14388748	0.25336942	-0.022817701	0.27749643	0.29502407	0.27023903	-0.23308119	0.14348546	-0.2047133	-0.2600619	0.11249033	0.063554995
0.05682943	0.08764592	0.021439122	0.07082516	-0.171667	-0.037421934	-0.005296675	-0.007157374	0.054018497	-0.030128743	0.32562286	-0.071887985	0.12471773	-0.10491968	-0.26744923	0.038230658
0.5036979	-0.79389006	-0.0017706166	-0.6943204	-0.50767016	-0.5673477	0.74700373	0.7104749	-0.4615697	-0.36381406	-0.41608343	-0.4473228	-0.5892254	-0.74817455	0.72198695	0.7776996
0.4025469	0.11695134	-0.4534025	0.077579826	-0.3346353	-0.44602087	-0.41897997	-0.32606286	-0.3231782	-0.42338535	0.46506345	-0.50772	-0.43144846	0.2901683	-0.30788237	-0.26847842
0.011034935	0.3524016	-0.21756597	0.2530033	0.063123815	0.08809364	-0.42259908	-0.22175217	0.17624404	-0.07520615	0.18612935	-0.06131055	-0.22654994	0.2506166	-0.43594292	-0.5814693
0.05459978	0.11706998	-0.09595232	0.12280403	-0.052000828	-0.09122029	-0.15807073	-0.1300542	-0.120412506	-0.09926254	0.2816115	-0.1462454	-0.025558053	0.093427084	-0.17840555	-0.014108136
0.1383295	0.07944842	-0.26267296	0.04262493	-0.15877469	-0.1972156	-0.21365525	-0.17364845	-0.26262665	-0.24745905	0.230782	-0.18172966	-0.21686281	0.16598171	-0.116621815	-0.18631656
-0.082104534	-0.1132876	0.2233279	-0.08830809	-0.17505847	0.20247838	0.25298235	0.41451332	0.34611008	0.20765306	-0.009302242	0.10303293	0.19551992	-0.40684718	-0.037632342	0.22597346
0.049742322	-0.034105852	-0.08989478	-0.0022403216	-0.045164134	-0.095185354	-0.04116001	0.0018588477	-0.12508368	-0.11830376	-0.051008917	-0.021288237	-0.1923149	0.0049951077	0.12485912	-0.018161064
-0.08791562	-0.033506416	0.19022848	0.062152002	-0.00095117564	0.20955355	0.036277287	0.10110904	0.15099567	0.16560471	0.011251293	0.14102986	0.062274925	-0.16016467	-0.06209465	0.1396203
-0.105979994	0.4249259	-0.2989607	0.40747917	0.24703453	0.0048441547	-0.46961796	-0.45751715	-0.30274913	-0.17789543	0.016154524	0.12080943	-0.22356339	0.48326004	-0.11310011	-0.46374092
-0.105869316	0.012925102	-0.109370984	0.023048997	0.25241357	0.030662488	0.17773329	-0.19747072	-0.5954521	-0.065908976	-0.70626223	0.20275296	-0.34718955	0.24208875	0.664092	-0.0046761753
0.014779114	-0.1480223	-0.007813103	-0.098978326	-0.045699224	-0.10331004	0.25006378	0.03980104	-0.19983505	-0.059277978	-0.16233084	-0.0017390248	-0.17714974	0.014051069	0.27809802	0.26294684
-0.23703137	0.2741432	0.02712108	0.30613494	0.09036638	0.23457792	-0.27181038	-0.11653841	0.32852307	0.19519545	0.25212488	0.11188896	0.19004893	0.07365168	-0.34627476	-0.34163505
